something -0.021121 -0.386799 0.056083 -0.043634 -0.042755 0.360193 0.345718 0.124748 0.272344 0.146701 -0.068815 -0.204101 0.483479 -0.43566 -0.185123 0.015282 -0.255913 -0.096129 -0.138516 0.154674 0.053318 0.280598 0.125606 -0.022662 0.226387 -0.298447 -0.013757 0.022154 0.21918 0.121649 0.306781 0.040986 -0.198347 0.147999 0.332534 0.027481 -0.071959 0.072792 0.157387 0.170823 -0.168463 0.160847 0.167541 -0.223297 -0.141033 -0.227822 0.182342 -0.03893 0.020119 -0.067413 -0.163392 0.006715 0.037909 0.090292 -0.338025 -0.357153 0.188449 0.005758 0.202313 0.116696 0.085461 -0.455915 0.200285 0.098369 -0.373366 0.274304 -0.240833 0.185522 0.02854 0.112213 0.157258 -0.179975 0.132116 -0.004724 -0.369237 -0.196389 -0.06183 -0.093955 0.074603 0.074535 -0.059909 0.082261 -0.287605 -0.141767 -0.230375 -0.122206 -0.068106 0.123181 0.217109 0.07476 0.248826 0.404049 -0.207666 -0.020211 -0.062135 -0.050186 -0.178049 -0.148187 0.07999 0.100715 -0.155409 0.130419 -0.060359 -0.222522 0.223596 -0.040659 0.293812 0.114686 0.339873 -0.005726 0.11916 0.228834 -0.255383 0.052381 0.081116 0.190314 -0.229357 -0.037843 -0.238043 -0.130871 0.108225 0.137622 -0.102352 -0.312316 -0.033572 -0.170482 0.184512 -0.035686 0.329208 -0.043168 -0.215853 0.088199 -0.208827 0.367776 0.222664 -0.119088 -0.1837 -0.252099 0.212966 0.028499 -0.283177 0.086333 -0.174163 0.102306 0.076424 -0.207387 0.035078 -0.051647 0.16466 -0.010723 -0.225503 -0.170847 -0.201333 -0.182779 -0.181841 0.107947 0.12101 -0.051682 0.225645 -0.006939 -0.070559 -0.28852 0.251125 0.060761 0.193109 0.216203 -0.142469 -0.14413 -0.133962 0.111165 -0.067314 0.232986 -0.372971 0.209032 -0.055747 -0.193753 0.255216 0.037341 -0.01457 0.031579 -0.098284 -0.19182 -0.059123 0.222176 0.017014 -0.324713 0.073083 -0.133393 -0.02978 -0.042366 0.073195 -0.180609 0.268905 -0.103833 -0.231952 0.169905 -0.255623 -0.102216 0.133246 0.171129
cowper 0.220612 -0.278088 -0.329142 -0.24125 -0.232191 -0.421783 0.001408 -0.501971 -0.036534 -0.033635 0.158113 0.287652 0.273082 -0.064507 -0.261719 0.413863 -0.443216 -0.388374 -0.132724 -0.099378 0.1131 -0.088639 0.24734 -0.200861 -0.318537 0.066184 -0.103053 -0.20672 0.184645 0.106318 0.010078 0.643862 -0.145417 -0.265784 0.027664 0.017119 0.498351 -0.213381 -0.270499 -0.168725 -0.384974 -0.330894 0.221234 -0.064203 0.433064 0.022414 0.749676 -0.45596 0.201153 -0.324878 -0.052422 0.271675 -0.359106 -0.436271 -0.042163 -0.126386 -0.049552 0.445974 -0.236114 0.065914 -0.030317 -0.209806 -0.137351 -0.744783 -0.015924 -0.414628 0.185325 0.047373 0.308565 -0.328249 0.358524 0.401324 0.236792 -0.182477 0.358517 0.140265 -0.478732 0.306885 0.3567 0.346552 0.686676 0.427079 0.013793 0.323703 -0.406842 0.036313 -0.336679 0.18841 -0.008132 0.289841 0.048718 0.079542 0.043923 0.332668 -0.001073 0.061091 -0.202063 -0.039487 0.147702 0.212136 -0.004408 0.056065 -0.287364 0.212071 -0.404921 0.13348 -0.068503 -0.299121 0.055663 -0.251377 0.143226 0.254105 0.104463 -0.300366 -0.388372 -0.201171 0.502001 0.311812 -0.090526 -0.461275 0.193696 0.487514 0.226297 -0.17743 -0.447699 0.040806 0.188107 0.342018 0.257967 -0.451787 0.348654 0.002956 0.21047 -0.071341 0.309375 -0.378826 -0.099718 -0.409549 -0.052972 0.089957 0.092504 0.239756 -0.180472 -0.211126 0.732857 0.247121 -0.232595 0.018908 -0.547045 0.319578 0.662562 -0.02638 0.030564 0.722198 -0.269724 -0.475091 -0.180548 -0.048061 0.377205 -0.166288 -0.174948 -0.028095 -0.138067 -0.172082 0.182013 0.216001 0.011553 0.000693 0.179468 -0.377467 0.19374 -0.018694 0.215378 0.158452 -0.320911 -0.519901 0.188147 0.441304 0.112041 -0.118105 -0.294412 -0.082865 0.061829 -0.1764 -0.61367 0.021858 0.317826 0.15421 0.123353 0.011684 -0.365912 0.0557 -0.450976 -0.126101 0.136371 -0.550253 0.161679 -0.159458 0.443239 0.434151
breves -0.308112 0.09995 -0.062669 -0.308975 0.052882 -0.012575 0.139058 0.142896 0.132522 0.228164 0.094996 -0.035159 -0.07484 -0.014713 0.214266 0.218686 0.206278 -0.364964 0.090636 -0.182659 -0.058683 -0.188035 0.272058 -0.085619 -0.026537 -0.024054 0.134855 0.122701 0.429698 0.117638 -0.025619 0.140146 -0.062993 0.198001 0.256824 -0.0828 0.282794 -0.148675 0.235615 0.130752 -0.191633 -0.236393 -0.279705 -0.127846 0.135114 -0.053103 0.104353 0.032306 -0.041729 -0.408352 0.031171 0.281858 0.141681 0.043748 0.316304 -0.190549 0.250937 -0.036859 0.153947 -0.037069 -0.339257 -0.04002 0.275715 -0.121064 0.091638 -0.231461 0.014745 0.140612 -0.07474 -0.20026 0.071907 -0.070177 -0.121728 -0.166488 0.001298 -0.58533 -0.217955 -0.158101 -0.008912 0.112641 -0.243572 0.394864 -0.056765 0.160338 0.141108 -0.039957 -0.183693 -0.062663 0.144846 0.299257 0.023288 -0.036189 0.10565 -0.434681 -0.019899 0.052597 0.176194 0.132017 0.206358 0.272989 0.223458 -0.169948 -0.048343 0.011099 -0.175521 -0.029651 0.142841 -0.095161 -0.163727 0.145004 0.387547 -0.236122 0.200733 -0.111123 0.027234 0.024501 -0.023627 0.2617 -0.071013 0.345981 0.110513 0.028526 0.305521 0.277415 -0.178333 -0.096414 0.041916 0.105771 0.317044 0.021376 -0.070897 0.223434 0.046813 -0.080383 0.057666 -0.161541 0.325787 -0.302455 -0.091991 -0.064089 0.103699 -0.101067 0.061827 -0.045329 -0.145851 -0.119236 -0.100702 0.045186 -0.175792 -0.082104 -0.196762 -0.067812 0.140442 0.204051 -0.000963 0.103468 -0.202361 0.055479 0.12031 -0.302722 0.181255 0.080812 0.074517 0.058273 -0.478302 -0.444507 0.089544 0.242868 -0.114726 -0.068946 0.287865 0.260222 -0.2417 0.197037 -0.385736 -0.068676 -0.077803 0.107643 0.270859 -0.261453 0.167007 -0.115254 0.000329 0.224226 -0.154427 -0.401434 -0.061246 -0.007104 0.037317 0.182017 0.135302 -0.030183 -0.236528 0.042189 -0.106066 -0.25602 -0.115084 0.111974 0.249727 -0.023634
hamate -0.073629 -0.033106 0.62995 -0.712336 0.048731 0.226061 -0.058156 -0.266209 -0.309089 -0.709483 -0.022404 0.088466 0.006698 -0.161684 -0.046163 -0.189252 -0.250931 -0.771152 0.593851 -0.533917 -0.507968 -0.584878 0.451024 0.180955 -0.151352 -0.383916 -0.386041 -0.100568 0.306362 -0.269196 -0.171825 0.121181 0.039236 -0.005896 -0.057137 0.746434 -0.184422 -0.223259 -0.060987 -0.01981 -0.300129 0.264249 -0.173986 0.208674 0.049649 0.08962 0.329942 -0.328317 0.323871 -0.308226 -0.530064 0.102681 -0.443097 -0.274043 0.314042 0.238358 0.090988 -0.240149 -0.286844 0.187532 -0.059919 -0.257443 -0.041029 -0.260373 0.017525 0.294024 0.867218 -0.107021 0.070113 0.435055 0.234464 -0.790998 0.186409 -0.201122 0.366167 0.009882 0.027837 0.206575 -0.095896 0.239138 -0.138915 0.170782 0.03238 0.641288 -0.123282 -0.317952 -0.267916 0.556184 0.063711 0.394088 0.240838 -0.718253 -0.088495 -0.181337 -0.144491 0.007906 -0.08985 -0.595016 -0.13671 0.250262 -0.317107 -0.904035 -0.035407 0.585651 0.202939 -0.170044 -0.027622 -0.524885 0.023589 -0.593614 -0.077917 -0.201788 -0.244223 -0.518131 -0.255927 0.75617 -0.221981 0.108507 0.101355 -0.143061 0.440184 -0.019414 0.304705 -0.321558 -0.095481 -0.077408 -0.179793 -0.019675 0.388917 -0.155196 -0.238697 -0.00352 -0.265138 0.443584 -0.424783 -0.078449 0.667828 -0.308284 -0.163943 0.40972 -0.21288 -0.063642 -0.597657 -0.117219 -0.056193 0.139982 -0.088667 -0.053721 -0.086594 0.366994 -0.468954 -0.048743 -0.065058 0.10733 0.027415 0.159439 0.227038 -0.152231 0.166345 -0.236648 0.11161 -0.036147 -0.206703 0.547765 0.090536 -0.248226 0.177027 0.827418 -0.583411 0.217996 0.400855 0.749274 -0.241484 -0.211202 0.187176 0.289038 -0.510826 0.526226 -0.596141 0.546065 0.008024 -0.439251 0.241991 -0.197233 -0.005889 -0.017928 0.419093 0.242562 -0.141516 0.606682 0.078593 -0.082776 -0.195612 0.199546 -0.249007 0.252523 -0.019012 0.493759 0.129125 -0.49296
mandible -0.234439 -0.098682 0.323181 -0.502739 0.285761 0.133627 -0.231109 -0.313947 -0.252835 -0.26502 -0.114846 0.165794 0.06458 -0.035055 0.50246 -0.386517 -0.341237 -0.354288 0.159882 -0.010482 -0.146268 -0.147435 0.565343 0.298809 -0.243753 -0.290787 -0.027306 -0.261272 0.475343 -0.214588 -0.430146 0.107656 0.071104 -0.02546 0.136943 0.283467 0.162584 0.046638 0.121257 0.133349 -0.221417 0.061632 0.013484 0.029954 0.007819 0.036675 0.063306 -0.141066 0.254589 -0.160638 0.091758 0.080573 -0.035239 -0.28774 -0.026726 -0.128295 -0.2457 -0.119241 0.15316 -0.115549 0.15747 -0.365348 0.217813 0.009376 0.11322 -0.067733 0.436552 0.00529 -0.234275 0.012772 -0.263386 -0.198747 -0.111075 -0.350575 0.530127 -0.20179 -0.168251 0.433246 0.430756 0.227352 0.309165 -0.072971 -0.343469 0.4806 0.066091 -0.04208 -0.072916 0.332063 -0.027333 0.196923 -0.075756 -0.653734 -0.075014 -0.120342 0.274541 0.070427 -0.039202 -0.108705 -0.12133 -0.122903 0.188237 -0.002209 -0.041084 0.60496 0.161953 0.248874 0.019775 -0.096066 -0.05376 -0.233599 0.091563 -0.152889 -0.238463 -0.241811 -0.13883 0.306861 -0.026733 -0.225468 -0.009607 -0.271956 0.151128 0.082157 0.252098 -0.306527 -0.276002 0.112461 -0.262093 -0.235505 0.258728 -0.178956 0.128524 -0.10998 -0.166347 0.298642 -0.123443 -0.011399 -0.150467 -0.39383 0.028592 0.141363 -0.062036 0.2762 -0.267356 0.136282 0.104826 0.011404 0.025885 -0.240151 -0.217175 0.394883 -0.032328 -0.015394 0.00559 0.25183 0.176425 0.240985 0.187244 0.143358 0.027462 -0.290592 -0.356808 -0.114781 -0.048575 0.251901 -0.181822 -0.23975 0.042778 0.163072 -0.326689 0.04592 0.214686 0.390055 -0.186772 -0.362656 0.044222 0.072994 -0.171687 0.439083 -0.253705 0.114222 -0.066678 -0.174451 -0.090892 -0.24326 -0.3447 0.095251 0.502422 0.200241 0.082956 0.224403 -0.107803 -0.081712 -0.346982 -0.081118 -0.054792 0.066364 -0.255332 0.101727 -0.108923 0.077023
lacrimal 0.015259 -0.298008 -0.434353 -0.503484 0.205939 0.119065 -0.260431 -0.378845 -0.277093 -0.434556 0.022901 0.42276 0.229483 -0.286876 -0.212071 -0.020475 -0.658398 -0.070036 -0.055829 -0.086676 0.163677 0.035311 0.134732 0.28046 -0.551659 0.11892 -0.029351 -0.408023 -0.206856 -0.309313 0.127167 0.499456 0.122822 -0.153502 0.271317 0.384921 0.105971 0.052207 -0.157248 0.029104 -0.011007 -0.300825 -0.226998 -0.057765 0.258587 -0.08398 0.562398 -0.104452 0.272738 -0.202846 0.166117 0.706677 -0.097512 0.02261 -0.025711 -0.355016 -0.052543 0.132246 -0.009195 -0.139805 0.324635 -0.315468 0.283991 -0.345385 -0.182639 -0.184292 0.436657 -0.181079 -0.02218 -0.04482 0.044689 0.046971 0.046528 -0.42564 0.264062 0.286185 -0.177962 0.484469 0.110417 0.042468 0.517556 0.017917 0.033614 0.4809 -0.005978 0.156008 -0.20586 0.38144 0.063525 -0.122367 0.037516 0.144888 -0.037576 -0.147147 0.144732 -0.248368 -0.287929 -0.157835 0.015335 -0.084216 -0.010862 0.360193 0.021944 0.109071 -0.34987 0.308613 -0.060436 -0.111752 0.152448 -0.330042 0.112976 0.287888 0.041001 -0.370237 0.156229 -0.183334 -0.085855 0.225396 0.050573 -0.12857 0.084705 0.560585 0.374487 0.113488 -0.171935 -0.088475 0.101434 0.430918 0.363782 -0.080021 -0.226222 -0.006371 0.042404 0.174209 0.388954 0.121468 0.063642 -0.309655 0.051611 0.044078 -0.05094 0.003659 -0.180956 -0.367573 0.351912 -0.403055 -0.095578 -0.387753 -0.402912 0.809324 0.858708 0.071656 0.227269 0.477144 0.06006 0.126777 -0.233223 0.040237 0.026495 -0.209614 -0.438385 0.153836 -0.01354 0.202865 0.025712 0.003577 0.405796 -0.085345 -0.003174 -0.156801 0.29126 0.255883 0.012254 -0.438154 -0.593013 -0.483335 -0.273426 0.500339 -0.145744 -0.054649 -0.305161 -0.032229 0.095962 0.007605 -0.61726 -0.089262 0.158157 0.556409 -0.028071 0.018295 0.098828 -0.04258 -0.061052 -0.05921 0.249668 -0.348344 -0.196591 -0.260759 0.159419 0.262022
yellow 0.087622 -0.068824 0.196665 -0.256912 -0.09961 -0.55657 0.205003 -0.042817 0.46895 -0.012062 -0.010268 -0.384114 0.148928 -0.087412 -0.229989 -0.354638 -0.008653 0.011284 -0.088423 -0.190074 -0.075413 0.036948 0.207735 0.307297 -0.319865 0.156626 -0.008906 0.00107 0.219728 -0.223612 0.057746 -0.149088 -0.15687 -0.250354 0.64686 -0.132769 0.463471 0.184491 0.249593 -0.309874 0.150111 -0.069767 0.009299 0.025687 -0.080197 -0.29983 -0.161496 0.014576 0.383519 -0.326207 0.044999 -0.249961 -0.135197 -0.025104 0.004001 -0.263318 0.024399 0.078477 0.069677 0.119045 0.093691 -0.281533 0.088061 -0.236559 0.104845 0.020663 0.29294 0.419422 -0.093596 0.190314 -0.057149 -0.125338 -0.19275 0.406476 0.190755 0.038329 -0.107483 0.15559 -0.406902 -0.242542 0.243409 0.03433 -0.039426 0.106141 0.06829 -0.078915 0.330323 -0.185035 0.021961 -0.064976 0.079555 -0.132436 0.119515 0.028879 -0.03784 0.182656 -0.072634 -0.167613 -0.07963 0.030153 0.082925 -0.286457 0.024013 0.261166 -0.095195 -0.286155 0.073583 0.229901 0.263343 -0.183803 -0.000749 -0.270044 -0.041967 0.190921 -0.040868 0.038022 -0.252968 0.194463 0.202406 -0.016873 0.26929 0.320901 -0.18019 -0.292124 -0.390625 0.475284 0.385784 0.099395 -0.069366 0.121289 -0.002354 -0.307013 -0.359457 -0.216491 -0.067266 0.198253 0.29028 -0.259465 0.152244 0.272724 -0.115172 0.082717 0.044051 0.081837 -0.319229 -0.115489 -0.091586 0.013593 -0.205926 -0.234158 0.008233 0.082306 0.00943 -0.113128 0.006845 0.118955 -0.026637 0.301591 -0.343612 -0.329859 -0.111401 0.419625 0.146278 -0.016643 -0.170372 -0.129179 0.143459 0.438484 -0.141537 0.099763 -0.507144 -0.025069 0.124147 0.037851 -0.241743 -0.055769 0.057068 0.224914 0.225781 -0.11403 0.154571 0.385947 0.207193 -0.084436 0.113474 0.081477 0.026615 -0.319991 -0.025296 -0.599015 0.125741 0.207081 -0.15823 0.188279 -0.197813 -0.070565 0.127638 -0.171708 0.229826 0.27477
malleus -0.076893 -0.093911 -0.250676 -0.381351 0.542354 0.12677 -0.262587 -0.411518 -0.097343 0.028528 -0.270425 -0.070524 0.342697 -0.091522 0.001396 -0.310397 -0.178643 -0.543031 0.059044 -0.228964 0.073409 -0.387564 0.692887 0.096226 -0.416436 -0.034753 0.200699 0.263606 0.593338 -0.203917 -0.229297 0.117541 -0.151964 -0.100346 0.002467 0.091098 0.185831 0.263222 0.139268 -0.089244 -0.047839 -0.121049 0.153681 0.259106 -0.052543 0.257374 0.124855 -0.214814 0.050697 -0.283889 -0.211042 0.125645 -0.074393 -0.396015 -0.204715 -0.162416 0.225057 -0.27984 -0.484632 -0.076732 0.342241 -0.233428 0.453466 -0.245512 0.312787 0.162783 0.540276 -0.165144 -0.164363 -0.134126 -0.069109 -0.444765 0.154251 0.060012 0.185808 -0.758184 -0.033548 0.383633 0.066365 -0.486487 -0.047942 0.005978 -0.454957 0.619947 -0.047105 -0.075323 -0.480719 0.500609 0.127034 0.537564 0.16953 -0.387547 0.260568 -0.122142 -0.237882 -0.330672 -0.085341 -0.368027 -0.085673 -0.149462 0.097324 -0.11768 -0.04629 0.253044 0.22122 -0.076765 -0.082885 0.003057 -0.367475 -0.18902 0.094045 -0.138349 -0.01388 -0.048721 -0.36972 0.192488 -0.218062 -0.09704 -0.32191 -0.066442 0.62556 -0.066131 0.268907 -0.367328 -0.058913 0.230018 -0.334851 -0.083767 0.568202 0.139036 -0.094756 -0.230604 -0.056441 0.194689 -0.252572 0.121182 -0.018681 0.101329 -0.231933 0.159089 -0.182066 0.000436 -0.215378 -0.283954 0.583642 -0.050941 -0.048543 -0.424568 0.118541 0.489849 -0.068984 0.051973 0.03866 0.191436 0.052361 0.606604 0.03918 -0.041353 -0.237179 -0.516452 -0.438266 0.025129 -0.115645 0.292018 0.006858 -0.190944 0.254727 0.392311 -0.541064 0.193188 -0.027509 0.381783 -0.218576 -0.048883 0.030648 0.047712 -0.151409 0.618535 -0.237917 -0.066868 -0.027227 -0.821122 -0.215416 -0.176387 -0.48775 -0.387363 0.326958 0.247588 -0.140268 0.042849 -0.50364 -0.383395 -0.298107 0.355404 0.022425 0.448139 0.21999 0.141092 0.232353 0.01731
vermis -0.16525 0.12993 0.204085 -0.15195 0.29196 -0.234194 -0.302724 -0.311689 -0.360258 0.105322 -0.034998 0.166567 0.20858 0.284689 -0.396692 -0.105435 -0.065651 -0.577348 0.478852 -0.247439 -0.027165 0.16261 0.445517 0.23215 -0.62233 0.064769 -0.365232 0.04236 -0.243673 0.377898 -0.19235 0.0572 -0.315584 0.150627 0.58706 -0.13629 -0.450106 0.200072 -0.012783 -0.138044 0.102035 0.368327 -0.22291 -0.180025 0.359889 0.15947 0.31595 -0.344067 -0.049112 -0.036189 0.107661 0.632876 -0.076072 -0.433437 0.035518 -0.427407 -0.112752 -0.48734 0.190042 -0.230218 0.056148 -0.307288 0.060611 -0.031303 -0.135077 -0.124728 0.790611 -0.088118 -0.506129 0.425307 -0.45821 0.291541 0.217664 -0.005421 0.343609 -0.077947 -0.054147 -0.285851 0.152377 0.398188 0.3998 0.157691 -0.348119 0.297706 0.243997 0.085589 -0.256775 0.166392 0.016853 -0.406062 -0.514226 0.011563 0.240829 -0.161058 0.110797 0.305972 -0.037801 0.026516 0.239434 0.49685 0.220227 -0.086568 -0.276081 0.237702 0.559325 0.30485 0.062031 0.001771 0.290521 -0.31491 0.022968 0.139356 -0.4878 -0.593056 -0.168892 -0.20486 0.165457 -0.016758 0.354594 -0.415332 -0.017085 -0.070913 0.028329 0.336845 0.363167 -0.129843 -0.560921 0.310487 0.07957 -0.510334 -0.109066 -0.330673 0.289767 0.090099 -0.198967 0.273787 -0.088172 -0.543404 -0.411414 -0.061165 -0.082851 0.147191 0.092822 0.289376 0.415666 0.188731 0.097374 -0.367886 -0.104615 0.371165 0.368783 0.067103 0.050525 -0.397176 -0.360817 0.049229 -0.378475 0.355113 0.270098 -0.421187 -0.517455 0.527634 -0.246815 0.007384 -0.506313 0.24604 0.478686 -0.021485 -0.191486 0.41489 -0.032254 0.036211 -0.243261 -0.117085 -0.338639 -0.169173 -0.083414 0.479674 -0.142223 0.070642 -0.008753 -0.759999 0.325044 -0.10101 -0.30432 0.616148 0.429536 -0.202422 -0.368607 -0.149986 0.077812 -0.018006 -0.22766 -0.273886 0.202998 -0.232137 -0.544376 0.11522 0.422365 0.508592
enteric -0.189941 -0.259004 0.274665 -0.29455 -0.022975 0.363512 -0.131802 -0.13682 -0.181746 0.02894 -0.28802 0.243508 0.029206 0.079418 -0.329274 0.111613 -0.503747 -0.408882 0.069356 -0.11464 0.403997 -0.096543 -0.013564 0.33398 0.057084 0.147181 -0.181884 -0.120049 -0.348092 0.179817 -0.052831 0.147983 0.30117 0.007848 -0.204849 -0.04833 -0.274422 0.082664 0.067173 -0.124808 -0.252476 -0.085518 0.043075 -0.055417 0.214032 0.372985 0.021222 0.202898 -0.113151 0.161774 -0.101815 0.046929 0.179311 0.196134 0.173888 0.449272 0.224504 0.178776 0.207436 -0.39229 0.120336 -0.144471 0.123892 -0.046463 0.056627 -0.319057 0.09786 -0.113929 0.31984 0.100926 0.063233 0.09567 0.349189 -0.049953 0.240004 -0.132858 0.186714 0.254229 0.217572 0.034277 0.050864 0.333695 0.199187 0.178132 0.04397 -0.276574 0.164699 -0.028623 0.027647 0.508052 0.367495 0.148669 -0.162275 -0.272822 0.330996 0.095572 -0.36077 0.200212 -0.054443 -0.0325 -0.189691 0.305923 0.057336 -0.089323 -0.103804 -0.122539 0.14344 -0.109309 0.111835 -0.056738 0.324858 -0.124183 0.637883 0.105715 -0.096143 -0.222646 0.019901 0.09314 0.065733 0.305646 -0.324594 0.135228 -0.033777 -0.059792 -0.011508 0.061983 0.163502 -0.039061 -0.114554 0.241904 0.508781 0.000869 0.122582 -0.477033 0.116344 0.285662 -0.050523 0.352623 0.218499 -0.07006 -0.105042 -6.7e-05 -0.342038 0.464408 0.21968 -0.183592 0.231636 -0.500395 -0.232009 0.056378 -0.162659 0.097608 0.130099 0.149247 0.017146 0.250176 -0.275049 0.043556 0.06694 -0.06075 -0.250093 0.181821 -0.186861 0.160024 -0.03764 0.337801 0.348778 0.048141 -0.006263 0.074066 -0.161626 0.194992 -0.020957 0.128968 -0.193228 -0.029253 -0.152488 0.165744 -0.02286 0.132435 -0.114213 -0.161328 0.317784 0.321955 -0.097423 -0.203178 -0.226881 -0.248756 -0.057147 -0.281886 0.507973 0.155532 -0.042433 -0.144186 0.153927 -0.502531 0.063475 -0.430239 0.21667 0.322854
tonsillar -0.124134 -0.271742 0.205634 -0.244413 0.157556 0.153687 -0.079556 -0.190019 -0.083522 -0.108887 -0.376675 0.208999 0.197942 -0.225764 0.007024 -0.162495 -0.429394 -0.213165 0.266514 0.226421 -0.067103 -0.086651 0.055507 0.173529 -0.5075 -0.15063 -0.203139 -0.417458 -0.109894 0.110619 -0.330432 -0.258183 0.021567 -0.0255 -0.042874 0.248107 0.026928 0.231603 0.112805 0.312812 -0.341637 -0.186961 0.145443 0.115898 0.082157 -0.076523 0.239558 -0.090297 0.007877 -0.232458 0.078045 0.351622 -0.48793 0.25654 -0.022855 -0.094552 -0.365285 0.337819 0.126 -0.05781 0.205927 -0.143172 0.106424 -0.357247 0.004969 -0.041869 0.508922 -0.18392 -0.042556 -0.005913 -0.239258 0.046616 0.142317 0.139558 0.239168 0.23784 0.001973 0.101882 0.342475 0.269987 0.311567 -0.20659 -0.202026 0.162434 0.034457 0.199115 -0.227443 0.086552 0.020302 -0.503998 -0.240649 -0.220451 -0.225812 -0.093296 0.139535 -0.073238 0.133304 -0.188224 -0.056157 0.003879 0.188879 0.049367 -0.230277 -0.182556 -0.001799 0.079158 0.28382 0.115356 0.03912 -0.148654 0.284814 0.289489 0.049229 -0.094911 0.042726 -0.021196 0.20846 0.098263 0.01568 -0.009714 0.06152 0.1641 0.433583 -0.100966 -0.138641 -0.272499 -0.082438 -0.156581 0.354264 0.30839 0.179102 -0.035112 0.106644 -0.149834 -0.024967 0.275316 0.064238 0.029561 -0.254398 -0.056344 0.108065 0.098346 -0.109292 0.102 0.336077 -0.104997 0.071024 -0.47661 -0.236013 0.320676 0.205583 -0.153845 0.201402 -0.004809 -0.077167 0.304767 -0.191127 0.286681 -0.085118 0.025178 -0.311643 0.263133 -0.205448 0.176487 -0.051454 0.003053 0.040474 -0.079008 -0.246804 -0.122155 -0.018859 -0.044586 -0.249989 -0.069522 -0.058101 -0.314183 -0.210519 0.466869 -0.238323 -0.062647 -0.10116 0.215275 -0.118889 -0.005413 -0.268242 -0.270848 0.240059 0.06816 -0.149557 0.050587 0.231846 -0.227343 -0.050171 -0.106581 -0.058569 -0.571946 0.101978 0.111605 -0.050989 0.107421
putamen -0.259247 -0.311158 0.51683 0.141554 0.130382 -0.073917 -0.244698 0.171681 0.013877 0.177376 0.488334 -0.040025 -0.027078 0.006577 0.06205 0.045423 0.054278 -0.118137 0.371702 -0.532032 0.0261 0.677047 0.190142 -0.048111 -0.163057 -0.109607 -0.224938 -0.203948 -0.098684 -0.306677 0.288582 -0.210233 -0.574119 0.312329 0.534253 -0.037411 -0.196779 0.521577 -0.422562 -0.878921 -0.118139 0.568849 0.175959 -0.008802 0.22217 0.096769 0.374501 0.032598 0.084576 -0.353069 -0.114679 0.297376 -0.216945 -0.183909 0.443798 -0.1455 -0.510602 -0.583631 -0.286323 -0.077415 -0.179341 -0.504248 0.127055 -0.009 0.033011 -0.410972 0.351797 0.125142 -0.289849 0.335352 -0.509216 0.521735 0.152113 0.487456 0.027137 0.138231 -0.232003 -0.642513 0.170438 0.066216 -0.01782 0.314768 -0.239458 0.542875 0.101384 0.053941 -0.196639 0.156347 -0.035014 -0.116204 -0.528837 -0.238235 0.390607 -0.128558 0.188134 0.141008 -0.559628 -0.140838 0.131753 0.576053 0.31155 -0.031726 -0.620552 0.2626 0.619072 0.072173 0.140836 0.221266 0.086754 -0.124648 -0.110424 -0.099925 -0.458922 -0.629173 -0.099542 -0.19452 0.346978 -0.015451 0.265004 -0.117106 0.042114 0.035018 -0.190007 0.104906 0.069374 -0.457787 -0.262312 0.005497 -0.009405 -0.595946 -0.148146 -0.371111 0.106617 0.07841 -0.37523 -0.100373 -0.089093 -0.814072 0.243277 -0.252287 0.417334 0.004935 -0.011607 0.175653 0.272896 0.572805 -0.217564 -0.798266 0.224118 0.221064 0.895595 0.126329 -0.210201 -0.554337 -0.003867 -0.00785 0.075694 0.630299 -0.300482 0.381687 -0.596573 0.052249 0.113468 0.215949 -0.389479 -0.110858 -0.182442 -0.561612 0.185087 0.54462 0.018089 -0.341336 -0.327158 -0.131506 -0.252167 -0.331272 0.468873 0.063423 -0.121007 0.205139 -0.052923 -0.964247 0.332034 0.038573 -0.603716 0.622789 0.498669 -0.205547 -0.492374 -0.226028 0.146986 0.296025 -0.491224 0.203613 0.296339 -0.493167 -0.343216 -0.161755 0.61482 0.278661
muzzle 0.078212 0.136788 0.13621 -0.240029 -0.042645 0.02941 -0.059103 0.118456 0.285287 -0.178199 -0.186043 -0.01373 0.389582 0.201424 0.043279 -0.16711 -0.331137 0.016205 0.031533 0.009298 -0.149349 0.09348 0.096578 -0.059221 -0.151776 -0.229543 0.437206 -0.108633 0.515632 0.091191 -0.595202 -0.302128 0.304406 0.709971 -0.178911 -0.110135 0.514378 0.449063 0.161264 -0.167822 0.178927 0.01976 -0.348502 -0.041601 -0.267846 -0.071988 0.351638 0.121694 -0.080526 -0.051844 0.009672 0.137346 0.063497 -0.027542 0.242346 0.125159 -0.026073 -0.132117 0.022715 -0.304028 -0.054716 -0.48608 0.356974 -0.138177 0.282981 -0.123161 0.038499 -0.193588 -0.071135 -0.296749 0.185353 -0.284844 0.167195 0.383332 0.378995 -0.091674 -0.282891 0.113285 0.251399 -0.168874 0.147998 0.13905 -0.135655 0.19909 -0.240204 0.002519 -0.257782 0.200217 0.113487 0.138417 0.928805 0.211222 0.260985 0.160972 -0.269671 -0.256811 -0.069226 0.026294 0.187849 0.278374 -0.078291 -0.236899 0.04922 -0.135583 0.053173 -0.080892 0.056769 0.008474 -0.085726 0.125017 -0.189786 -0.320319 -0.228482 0.024458 -0.226526 -0.052738 -0.115384 -0.148612 -0.217051 0.214728 -0.047625 0.546174 0.337616 -0.420916 0.304122 0.32108 0.254953 -0.037807 0.404978 0.244965 -0.133807 -0.017422 -0.369085 0.227872 0.075893 0.036108 0.097294 -0.009133 -0.190147 0.16127 0.050078 0.210414 -0.288901 0.317408 0.108835 0.092951 0.130263 0.510227 -0.246345 0.442947 0.177885 0.159771 -0.182491 -0.012875 -0.225094 -0.093451 -0.145661 0.107267 0.235711 -0.378511 -0.151021 0.052198 0.489008 -0.157384 -0.251944 -0.354572 -0.168323 0.037851 -0.27126 -0.412645 -0.197758 -0.09608 -0.252569 0.022882 -0.031385 0.314387 0.036501 0.598136 0.122424 0.065778 -0.015098 -0.204923 0.134321 -0.320983 -0.284195 0.101947 -0.174405 -0.199019 -0.15483 0.066747 -0.113082 -0.277714 -0.180573 -0.151527 0.082863 0.100613 -0.185447 0.207408 -0.227435 0.039345
suprachiasmatic 0.138195 -0.356582 -0.036834 -0.035274 -0.120984 0.215669 -0.203868 0.05406 -0.125024 0.560107 0.491012 0.285052 -0.011324 0.008055 0.184289 0.607514 -0.162863 0.367094 0.158472 -0.306946 -0.033725 -0.199639 0.120303 0.450946 0.306622 0.464404 0.635712 -0.14349 -0.567226 -0.33812 0.066776 0.295707 -0.390232 -0.032249 0.343811 -0.149156 -0.458586 -0.043274 0.320652 -0.790613 -0.076452 0.014201 -0.003172 -0.560498 0.541212 0.086369 0.347739 -0.043357 -0.19116 -0.539961 0.396249 0.418671 -0.233029 -0.05351 0.267188 0.08768 -0.289185 0.050721 0.055357 -0.53062 -0.001202 -0.43331 0.282508 -0.284683 -0.087876 -0.122196 -0.403049 0.333181 0.17151 0.367547 -0.011506 0.52399 -0.290632 0.000669 0.530915 -0.045275 -0.365149 -0.247492 0.224106 -0.153203 -0.186568 0.599868 -0.054105 0.489496 0.768619 -0.14495 -0.002049 -0.223616 0.109651 0.262161 -0.234026 0.105756 0.3776 0.041823 0.432238 0.780185 -0.775346 0.460138 -0.355673 1.07512 0.208387 -0.048899 -0.087107 0.227463 0.518673 -0.294737 -0.603342 -0.164448 0.708744 -0.78754 0.092062 -0.609038 -0.302106 -0.252479 0.483525 0.530746 -0.114766 0.569633 0.535074 0.210228 -0.373529 -0.025078 -0.309478 0.112944 0.159326 0.19615 -0.180525 -0.157544 0.011304 -0.331431 -0.057592 -0.689437 -0.193553 -0.045724 0.151296 -0.328495 0.388015 -0.168222 0.018446 -0.67343 0.28211 0.438688 -0.396916 0.173652 0.110136 0.350839 -0.278923 -0.992416 0.529346 -0.018744 1.12819 0.740228 -0.32945 0.229276 0.072861 0.176539 0.254388 0.538405 0.01096 0.172501 -0.471832 0.426874 -0.207721 -0.306661 -0.266793 -0.455887 0.362204 -0.57127 0.872276 -0.216595 -0.070144 0.248589 -0.133196 -0.046369 -0.251137 -0.044508 0.516857 0.50198 -0.386363 0.973271 -0.343321 -0.244995 0.605193 0.524708 -0.639582 -0.018384 0.016519 0.372323 -0.400711 -0.239652 0.025758 0.402254 -0.778028 -0.598761 0.312693 -0.607017 -0.09223 0.174815 1.05411 0.520011
penile 0.000629 -0.035646 -0.068797 -0.179362 -0.057404 -0.028816 -0.370288 -0.222641 -0.099316 0.164927 -0.009659 0.195227 0.313793 -0.292923 0.08378 0.295349 -0.358535 -0.547667 -0.053231 -0.34689 -0.050255 -0.172463 -0.246391 0.017062 -0.084709 -0.185906 0.135314 -0.213052 0.365836 0.066039 -0.388364 -0.243605 -0.272749 -0.05407 -0.380664 -0.104588 0.171901 -0.066973 -0.06713 0.125553 -0.394027 0.199778 -0.182317 0.148374 -0.256112 0.268455 0.408137 -0.28078 -0.024485 0.161543 -0.046153 0.378278 -0.291462 0.085009 -0.061822 0.129196 0.069602 0.212814 0.161868 0.383708 -0.003754 -0.194281 0.060776 -0.478793 -0.302821 -0.189729 0.185049 -0.190613 -0.063155 0.015243 0.337696 -0.214346 0.110314 0.066331 0.182976 -0.066542 -0.27543 0.338676 0.427482 0.042149 0.344955 0.355889 -0.365162 0.021383 -0.132558 -0.085455 -0.008059 0.019709 -0.07891 0.009791 -0.000113 -0.32435 -0.255438 0.249818 -0.016443 -0.006285 -0.30659 -0.187461 -0.227509 -0.028476 -0.285135 0.365287 0.037519 0.009254 0.099996 0.106576 0.142698 -0.013018 0.03601 0.12473 -0.185707 -0.079467 0.037084 -0.277973 0.058521 -0.360995 0.102867 -0.073603 0.021068 -0.293924 0.308858 0.143665 0.295863 -0.537414 -0.522712 0.193372 0.056483 0.230395 0.104569 0.10158 0.138596 -0.015797 0.133288 -0.414213 0.075616 -0.08312 -0.001438 -0.27945 0.051584 -0.065562 -0.017165 0.217583 -0.098791 0.231647 0.055368 -0.222122 0.098446 -0.045419 -0.248103 0.575845 0.231593 0.103395 0.14 0.282042 0.009726 -0.044522 -0.111194 0.041184 -0.078203 -0.134938 0.062153 0.23178 0.064165 0.118168 0.146673 -0.295503 0.192316 -0.181795 0.081103 -0.147923 0.085503 0.24756 0.037503 0.136465 -0.040806 -0.159627 0.027265 0.496427 -0.132151 0.225568 0.066193 0.088286 -0.056454 0.201352 -0.380963 -0.165508 0.031556 0.027501 -0.318721 0.065922 -0.179798 0.173898 -0.389234 0.112858 0.062567 -0.16635 -0.09894 0.343211 0.056617 -0.184838
ventral -0.053317 -0.182061 0.270538 -0.243092 -0.174714 0.279231 -0.484444 0.040789 -0.17831 0.14579 0.250257 0.116076 -0.10991 0.207021 -0.176673 -0.184483 0.081346 -0.45505 0.3727 -0.43082 0.047801 -0.032983 0.385525 0.107601 -0.204343 -0.026312 0.029718 -0.192368 0.42858 -0.165721 -0.150607 0.031622 -0.351814 0.344797 0.30232 -0.053972 0.087981 0.138552 0.005061 -0.28706 0.098491 0.024312 -0.15608 -0.027255 0.077678 -0.203827 -0.061708 0.041544 0.154826 -0.083254 -0.082674 0.269841 -0.090678 0.272159 0.206839 -0.059999 -0.109459 -0.045443 -0.260075 0.094009 -0.2229 -0.18875 0.031504 -0.397352 0.138632 -0.44389 0.322204 0.164695 -0.479585 -0.073792 -0.420854 0.295251 0.041191 0.456865 0.383434 0.011569 0.034987 -0.27337 0.255866 0.295539 0.309149 0.288171 -0.342016 0.528089 0.031405 0.063164 0.086738 -0.27873 0.00288 0.058867 -0.148533 -0.019702 0.210091 0.005428 0.049908 0.086157 -0.325569 0.300914 0.063248 0.434426 0.231075 -0.095255 -0.134586 0.566139 0.650891 0.099262 -0.115087 0.165358 0.329826 -0.306791 0.007879 -0.507494 -0.270234 -0.521659 -0.267608 0.07577 0.156696 0.166812 0.26211 0.115475 0.223402 0.148582 -0.012429 0.082765 -0.085984 0.127495 -0.140717 0.338731 0.206339 -0.381887 -0.045708 -0.493727 -0.14971 0.130477 -0.132469 0.046599 -0.223158 -0.223619 0.069908 -0.033058 0.39214 -0.0334 -0.105563 0.243268 0.111567 0.074045 -0.079342 -0.559782 0.111488 0.124254 0.377633 0.362657 -0.206177 -0.161458 -0.004779 0.011062 -0.30124 0.477178 0.097265 -0.373836 -0.321727 0.228024 0.005424 0.171497 -0.030704 -0.174249 0.060499 -0.005008 0.013004 0.533134 0.04525 0.420297 -0.214163 0.054533 -0.103599 -0.163229 -0.020665 0.185135 -0.330389 0.280399 -0.044309 -0.302708 0.352023 -0.107358 -0.294721 0.141744 0.577469 0.042512 -0.219026 -0.111143 -0.020599 0.060156 -0.34076 -0.066933 -0.060275 -0.465322 -0.098239 0.077581 0.536361 0.489692
metacarpus -0.075273 -0.101866 0.570037 -0.418328 0.302866 0.014453 -0.035156 -0.216918 -0.260538 0.145618 -0.169545 0.050409 -0.076134 0.244014 0.123227 -0.006169 -0.526614 -0.304349 0.153293 -0.113429 -0.177352 -0.552848 0.683561 -0.194675 -0.384105 -0.047647 -0.03673 -0.552939 0.373981 -0.089257 -0.293413 -0.024572 -0.081905 0.236488 0.155319 0.221639 0.161903 -0.081418 -0.114081 -0.13046 -0.256309 0.276138 -0.216171 0.34357 -0.433944 0.456021 0.056034 -0.367224 0.233582 -0.07125 -0.118293 -0.2144 -0.102105 -0.15262 0.096663 0.022283 -0.099122 -0.111031 -0.100071 -0.045298 0.004772 -0.356739 0.095783 0.134718 0.392758 0.121841 0.759007 0.162279 0.073267 0.058475 0.038316 -0.43963 0.138178 -0.098729 0.496932 -0.127705 0.046057 0.306521 0.451321 0.279591 0.049829 0.060135 -0.08586 0.119569 -0.162222 0.199383 -0.256495 0.188574 -0.056445 0.34087 0.03476 -0.736571 -0.047009 -0.033318 0.253666 0.033273 -0.303196 -0.448343 0.065176 -0.048436 -0.084228 -0.192348 0.023912 0.608419 0.263134 -0.032397 -0.041417 -0.103393 -0.064884 -0.355013 0.155553 -0.233357 -0.21585 -0.147906 -0.372605 0.282841 -0.116583 -0.158772 0.135637 0.070357 0.20206 -0.194319 0.520981 -0.20773 -0.235726 0.153991 -0.232793 -0.144268 0.467415 -0.096948 0.161493 -0.148094 -0.2241 -0.169899 -0.354102 0.091848 -0.007963 -0.59489 -0.349349 0.168867 -0.093801 0.06709 -0.178299 0.204813 -0.041798 0.254473 0.106325 0.085973 0.286845 0.139534 -0.39084 -0.082776 -0.014413 0.312692 -0.055375 0.097028 0.382119 -0.018678 -0.118585 0.037657 -0.386257 -0.134303 0.067446 0.20064 -0.152078 -0.185304 0.303745 0.333545 -0.202176 -0.071267 0.00903 0.594355 -0.379883 0.002368 0.172544 0.230735 -0.349755 0.129293 -0.261387 0.107024 -0.167424 -0.210454 0.32043 -0.214999 -0.197843 -0.012623 0.526713 -0.030085 -0.057997 0.02718 -0.276708 -0.029481 -0.309334 0.202064 -0.002101 0.178348 -0.440671 0.356953 -0.10676 -0.169575
processus 0.153925 0.454232 0.494072 -0.13246 0.010326 0.169612 -0.445241 0.027588 -0.587457 0.031004 0.021383 0.198311 0.096238 -0.162114 -0.099199 -0.046592 -0.37285 -0.678417 0.255533 -0.114889 -0.190433 -0.056485 0.158543 -0.175147 -0.235727 -0.645897 -0.276497 -0.281772 0.569343 0.047019 0.155624 0.279092 0.122707 -0.116987 -0.02355 0.478589 -0.197099 -0.296406 0.155585 -0.216353 -0.0175 -0.108595 0.025504 0.414277 0.291371 0.142745 0.183258 -0.323665 0.060291 -0.115955 -0.054162 0.814189 0.005967 0.195827 0.179229 0.206611 0.327291 -0.493137 0.107422 0.191559 0.093782 -0.024784 -0.095997 -0.45404 0.350569 0.032109 0.312319 0.153123 -0.426014 0.101484 0.027463 0.082003 -0.213597 0.219921 0.607164 -0.165157 -0.402157 0.25364 0.481807 -0.138853 0.321616 0.573672 -0.083336 0.402733 -0.157396 0.355827 -0.274232 -0.16306 -0.508912 0.215191 -0.146095 -0.072951 0.100773 -0.503378 0.133498 -0.214506 -0.039935 0.024714 0.100318 0.376929 -0.443296 -0.57648 0.245596 0.352443 0.166014 0.246358 0.077902 -0.025575 0.211793 -0.124119 0.448491 -0.565427 0.059295 -0.416759 -0.017298 -0.140559 -0.441567 -0.054508 0.132236 0.075329 0.457423 -0.218913 0.356991 0.137164 -0.564361 -0.10753 -0.237041 -0.078905 0.329121 0.209869 0.195916 0.041422 -0.318742 -0.067825 -0.540601 -0.422346 0.410768 -0.488854 -0.192216 -0.023173 -0.1461 -0.331072 0.092398 -0.019671 0.12703 -0.216162 -0.176182 -0.130593 -0.265123 0.681686 0.00268 -0.016313 0.055615 0.049403 0.155935 0.202471 0.054958 -0.080654 0.037312 -0.551773 -0.07484 0.040656 -0.043641 -0.099748 0.074685 -0.53838 0.087403 -0.031644 -0.35946 -0.232273 0.043742 0.492182 -0.493807 0.038496 -0.452814 -0.349291 -0.610701 0.261047 -0.274897 0.071252 -0.14428 -0.644604 -0.103126 0.117867 -0.481615 -0.05862 0.277273 -0.111337 0.36677 0.227138 -0.229461 -0.256558 -0.166431 0.273764 -0.090753 -0.22419 -0.4466 0.423282 0.904576 -0.160691
pronator -0.061504 0.045298 -0.332485 -0.469632 0.403129 0.54883 0.103138 -0.000495 -0.425323 0.330202 0.093731 0.399283 0.049207 0.358471 -0.171205 -0.29407 -0.244818 -0.571981 0.037173 -0.32642 -0.230695 -0.708836 0.694163 -0.067019 -0.295282 -0.316347 -0.655125 -0.08603 0.97016 -0.073119 -0.293957 0.345879 -0.198141 0.049434 -0.241692 -0.470194 -0.218728 -0.05731 0.025453 -0.205037 -0.320425 0.10224 0.035705 0.359698 -0.237226 0.480917 0.182047 -0.952018 0.420474 -0.383448 -0.617798 0.098726 0.454514 -0.137438 -0.093498 0.238278 -0.069082 0.06114 -0.361636 0.359626 -0.298899 -0.005623 0.550643 0.560869 -0.18712 -0.368104 0.706434 0.144685 -0.260949 0.292384 0.031573 -0.321862 -0.4201 0.832366 0.592912 0.067303 -0.883642 0.213038 0.204208 -0.023316 -0.586986 0.449417 -0.810078 -0.322956 0.458183 -0.108433 -0.292897 0.496985 -0.610299 0.288038 0.014298 -0.039776 0.276404 0.08216 0.077517 -0.085095 -0.568297 -0.045924 -0.077092 -0.07094 -0.203804 -0.323051 -0.437962 0.469483 -0.28004 -0.349106 0.078798 -0.720886 0.108195 0.136224 0.139174 -0.028286 -0.055804 -0.447553 -0.170789 0.363523 -0.479479 -0.115501 0.263543 -0.012422 0.236057 -0.306073 0.441558 -0.462044 0.322036 -0.151596 0.01201 0.301871 0.774554 0.26946 -0.097237 -0.217998 0.679613 -0.443127 -0.720938 0.139495 0.115376 -0.524616 -0.36535 0.277067 0.182268 -0.084973 -0.190468 0.389684 0.077285 0.063765 0.605288 -0.33332 -0.389956 0.34459 -0.754641 -0.42621 -0.147578 -0.082784 -0.686038 0.708937 -0.065748 -0.551879 -0.183095 -0.109287 -0.153103 0.141466 0.347229 -0.29684 0.077318 0.144681 0.470348 0.604018 -0.415356 -0.391843 0.488491 0.343433 0.214184 -0.007012 -0.030849 -0.088745 -0.303789 -0.259634 -1.01809 0.240604 0.100668 0.184178 0.119947 -0.07783 -0.001535 -0.166228 0.267319 0.113769 0.128114 -0.48807 -0.44733 -0.587696 -0.207392 0.305661 -0.046067 0.181876 -0.116276 0.213623 0.757362 -0.145374
lipocyte 0.088327 -0.035457 0.366863 -0.152862 0.237048 -0.027255 -0.430609 -0.283746 0.184748 0.054074 0.016828 -0.284742 0.241635 0.215507 0.109678 -0.353525 0.07002 0.058391 -0.281 0.018397 -0.018715 0.034968 0.123809 0.112205 0.038626 0.056537 0.283927 -0.263633 0.041304 0.20788 -0.072676 0.164277 0.307394 -0.247989 0.109717 -0.029246 -0.137791 -0.308982 -0.056221 0.292874 -0.066189 -0.100517 -0.330834 0.316919 0.067536 0.035051 -0.148682 -0.356667 -0.42786 -0.37583 0.199012 -0.290834 -0.081897 -0.023974 0.219784 -0.038052 -0.27398 0.221379 0.157521 -0.251901 0.1508 -0.273616 0.081159 -0.120544 0.202215 0.133322 -0.097529 -0.195039 0.124932 -0.001267 -0.025087 -0.22452 0.090409 0.07319 0.015229 0.065054 0.00291 -0.238539 0.158133 -0.117075 -0.137117 -0.034345 -0.008091 0.443098 0.105948 -0.307177 -0.07523 -0.097221 -0.09583 0.420928 -0.041983 0.387804 -0.017264 -0.036684 -0.175795 0.222707 -0.364897 0.142122 -0.297983 0.109978 0.051815 0.263699 -0.373585 0.155364 -0.075409 0.527003 0.187387 -0.117832 0.461514 -0.326543 0.245494 0.454848 0.075427 -0.015633 -0.062065 0.019015 0.115209 0.142748 -0.12194 -0.013336 -0.055852 0.24545 0.227532 0.458053 0.120732 0.063567 0.101729 0.368099 0.448467 0.005138 -0.131464 -0.193781 0.224168 -0.088081 -0.212626 0.129399 -0.011612 -0.112974 0.041579 -0.106217 0.34997 -0.00916 0.008416 -0.097211 0.149897 -0.199478 -0.028706 -0.322593 0.198915 0.039083 -0.133412 -0.198243 -0.64763 -0.152258 0.168745 -0.175072 -0.185045 -0.182682 -0.323369 0.066762 -0.160455 -0.034442 -0.063459 -0.000391 -0.051052 -0.14268 0.114958 0.084309 -0.095478 0.016456 0.137858 -0.281259 0.252437 -0.333048 0.095485 -0.017137 -0.13132 0.149016 -0.016826 0.215862 -0.179276 0.276119 0.290967 0.005988 0.483346 -0.417399 -0.344567 0.218672 0.010301 0.043878 0.232617 -0.080027 -0.058031 0.198834 -0.069876 -0.08315 0.142896 0.211061 -0.112508 -0.113943
immature -0.129135 -0.225032 0.25786 -0.285412 -0.15701 -0.014934 0.334404 -0.038507 0.52335 0.148128 0.250543 -0.09255 0.30826 0.046018 -0.246323 -0.19369 0.043717 -0.195157 0.044167 -0.082241 -0.228907 -0.010208 0.157007 0.261592 -0.053871 -0.341051 0.160969 -0.088271 0.067463 0.18127 -0.367715 0.073624 0.065287 -0.243089 0.068725 -0.300964 -0.119576 -0.090813 -0.190096 -0.089218 -0.167935 -0.143198 0.13152 0.170827 -0.097717 -0.063945 0.09646 -0.221449 0.094215 -0.118703 -0.110834 -0.221066 0.275437 -0.054742 0.142592 0.252337 -0.090929 0.143961 0.027494 0.00107 0.226752 0.186522 -0.169247 -0.245078 0.123315 -0.006671 0.395916 -0.232336 0.098598 0.110294 -0.168458 0.122004 0.52816 -0.167442 0.187263 -0.244603 0.020969 -0.132571 0.25152 0.288746 0.10328 0.171186 -0.062164 0.140969 0.00172 0.090634 0.135651 -0.223479 -0.01444 0.098786 0.00538 -0.080535 -0.330068 0.260274 0.187743 -0.192689 0.11031 0.107758 -0.216993 0.294717 0.331394 -0.080263 0.132582 0.178198 -0.097621 0.345163 -0.00449 0.086999 0.148324 -0.299633 -0.076271 -0.003836 0.135039 0.052099 -0.192332 0.108848 -0.249138 0.175712 0.038876 -0.058212 -0.143566 0.068831 0.062183 0.315325 0.174053 -0.009193 0.005784 0.213657 0.209002 -0.067522 -0.15953 -0.198696 0.000227 0.057446 0.001385 -0.129809 -0.012626 -0.10451 0.17846 -0.198123 0.27594 -0.015132 0.077221 -0.079947 -0.05199 -0.029659 -0.248417 -0.303005 0.213138 0.236267 0.355736 0.06872 -0.006773 0.113303 0.219271 -0.068557 -0.083386 0.109898 -0.254457 -0.037879 -0.105265 0.139946 0.078923 -0.03222 -0.074692 0.207746 0.036879 0.010191 -0.232746 0.16363 -0.347721 0.320421 0.023227 0.161496 -0.092314 -0.070093 0.367274 0.128813 0.104969 0.074812 0.030412 0.07034 0.160276 -0.364813 0.080058 -0.179134 0.175049 0.038478 -0.275711 -0.012624 0.211326 -0.00296 -0.13526 -0.039986 -0.18337 -0.048587 0.104544 0.031202 0.008891 0.176421
humerus -0.217693 -0.021656 0.654407 -0.417938 0.17784 0.216125 -0.131937 -0.32749 -0.374025 -0.209629 0.031437 -0.006841 -0.145286 0.329402 0.108655 -0.182142 -0.203436 -0.514857 0.32644 -0.274672 0.01793 -0.438209 0.591739 0.076275 -0.063693 -0.489087 0.044307 -0.3023 0.670986 -0.063237 -0.115208 0.166439 0.040403 0.28008 -0.154607 0.458687 0.069259 -0.056137 -0.218038 -0.33152 -0.235045 0.000873 -0.017881 0.309388 -0.373903 0.380984 0.354645 -0.214827 0.68074 -0.063385 -0.182921 0.109785 -0.015431 -0.254219 0.124838 -0.21528 -0.160875 -0.028828 0.012678 0.133591 0.062582 -0.465285 0.077269 0.232662 0.201377 0.053657 0.750661 0.143222 0.21835 0.165918 0.042428 -0.626783 0.01069 0.047284 0.430265 -0.110882 -0.236141 0.27566 0.442262 0.540322 -0.111722 0.222335 -0.201368 0.300837 -0.156463 0.109336 -0.447551 0.049162 -0.087528 0.57768 -0.16589 -1.03601 -0.087711 -0.1439 0.071804 -0.072571 -0.259509 -0.434032 0.098678 -0.220094 0.009665 -0.45474 0.151201 0.648126 -0.137992 -0.027946 0.068409 -0.290929 -0.189123 -0.341796 -0.160516 0.067323 -0.356477 -0.50477 -0.303283 0.27855 -0.289042 -0.178469 -0.100555 0.024147 0.430262 -0.036265 0.234526 -0.545179 -0.149998 0.232333 0.161571 -0.262746 0.482313 -0.095438 -0.112047 -0.268256 0.018379 -0.259172 -0.316197 0.076838 0.149049 -0.730811 -0.294535 0.127562 -0.056441 -0.246743 -0.269345 0.143058 -0.240935 0.303809 0.05692 -0.057087 0.309771 0.481344 -0.597201 -0.156474 -0.186042 0.379629 -0.215119 0.074566 0.376725 0.017375 -0.051779 -0.097403 -0.336386 0.198861 -0.141406 0.385435 0.229138 -0.236434 0.402438 0.418349 -0.491865 0.164233 0.307346 0.707057 -0.164682 -0.355105 0.088465 0.345312 -0.456396 0.09275 -0.318703 0.2454 -0.249069 -0.226065 0.136695 -0.454782 -0.325688 -0.223899 0.592718 -0.04822 0.041353 0.39528 -0.342693 0.068552 -0.629689 0.058428 -0.228741 0.259447 -0.390819 0.035291 0.062723 -0.300895
digit 0.185659 -0.009845 -0.092712 -0.197197 0.299153 -0.117269 -0.049965 0.162122 0.059603 0.129405 -0.159385 0.145923 0.177417 0.079177 0.000733 0.053022 -0.041083 -0.246609 -0.279043 -0.117436 -0.033604 -0.256945 0.320357 -0.315214 -0.371978 -0.006336 -0.187892 -0.358535 0.394335 0.164631 -0.465434 0.283648 -0.206396 0.212778 0.078628 0.207495 0.287006 0.026234 0.111943 -0.194659 0.250557 0.315126 -0.118445 0.214055 -0.554897 0.135051 -0.20446 0.199075 0.257357 -0.179303 0.140022 -0.092352 0.136263 -0.23883 -0.085216 -0.13355 -0.02208 -0.04014 -0.190409 -0.009449 0.255818 -0.059972 0.177683 0.392402 0.358281 0.298642 0.447914 -0.187061 -0.144194 -0.036327 -0.195053 0.165483 -0.139165 -0.046251 0.252208 -0.17387 -0.062154 -0.146691 0.298095 -0.135574 0.222944 -0.088373 -0.399282 -0.050737 -0.030429 -0.028112 0.02962 0.140284 0.061234 -0.029137 0.076094 -0.270457 -0.155178 -0.038897 -0.200494 -0.143135 -0.487066 -0.206021 0.169746 0.233994 -0.083577 0.22434 -0.016726 0.131609 0.094778 -0.367355 0.07368 0.092409 -0.009529 -0.062491 -0.044844 0.153601 -0.01198 0.148048 -0.467614 -0.336547 -0.335364 0.045695 -0.080544 -0.232565 0.103766 -0.114398 0.085577 -0.190331 -0.201869 0.052787 -0.020672 0.124498 0.186605 -0.092352 -0.262413 -0.102204 -0.054867 -0.060125 -0.151493 -0.099306 -0.132502 -0.090334 -0.143569 0.238855 0.011636 0.068637 0.311864 -0.051787 -0.349267 -0.345183 -0.178589 0.01047 -0.143806 -0.288317 -0.135828 0.027301 -0.125125 0.308451 -0.374267 0.060664 -0.188593 0.008303 -0.090475 -0.094336 0.01921 -0.108091 0.029504 0.205941 -0.092222 0.422132 0.19352 0.032699 -0.32442 0.128332 0.01367 0.356248 -0.49072 -0.492976 -0.073044 -0.128354 -0.030924 0.13948 0.084588 0.077627 -0.064542 -0.360402 0.070071 0.000795 -0.172396 -0.22199 0.64319 -0.412623 0.019731 0.104743 -0.097915 0.185315 -0.353363 0.075916 -0.162559 0.160227 -0.470483 0.414116 -0.130863 -0.015113
vasa 0.149294 -0.045391 0.048194 -0.185417 -0.153802 0.152885 -0.257314 -0.326881 -0.239822 0.402183 -0.005372 -0.297389 0.567784 -0.264575 -0.368339 0.030649 0.011345 -0.18529 0.469446 -0.051829 -0.186198 -0.371541 0.303377 -0.09471 -0.408484 -0.282981 -0.059121 -0.064528 -0.304162 -0.166777 -0.282942 -0.199891 0.138843 -0.181646 0.292271 -0.184389 -0.074464 -0.237473 -0.144964 -0.128798 0.110604 0.11597 -0.304623 -0.053093 0.232317 0.109281 0.218248 -0.283105 -0.535644 -0.028939 -0.156089 -0.140446 0.142572 -0.341111 0.173555 -0.193589 0.155194 -0.071588 -0.268317 -0.039306 -0.270414 0.147261 -0.188609 -0.474135 0.308691 -0.189479 0.322198 0.152551 0.136812 -0.150659 -0.025637 0.388937 0.038814 0.059825 -0.199071 0.19107 0.069386 0.245535 0.089717 0.058677 -0.03679 0.63488 0.150771 -0.007033 -0.213729 0.057979 -0.110673 -0.027213 0.213887 0.418932 0.062751 0.247929 -0.493067 -0.155894 -0.063994 0.195992 -0.243974 0.234489 -0.048164 0.42846 -0.023952 -0.408312 0.098042 -0.026523 0.057261 -0.367836 -0.042238 -0.348198 0.286473 -0.059798 0.045483 -0.128426 -0.328257 0.034642 -0.149171 -0.201985 -0.197757 -0.048336 -0.135014 -0.46289 -0.287569 -0.060525 0.752313 0.281906 -0.430231 -0.037154 -0.028663 0.312929 0.127089 0.465188 -0.029846 -0.142611 0.489698 -0.228769 0.284011 0.196632 0.216327 -0.464227 0.819293 0.005694 0.286792 0.545427 -0.018366 0.262455 0.227525 -0.666933 -0.479612 0.175552 -0.277223 0.732278 0.281012 0.180902 -0.158691 0.379303 -0.06985 -0.350636 -0.22493 0.011593 -0.420848 -0.202553 -0.25282 -0.114022 -0.183209 0.031696 0.110552 -0.424975 0.134701 0.035148 0.142072 0.102064 0.059772 0.380192 0.420356 0.286099 -0.683202 -0.397812 -0.140161 -0.47722 -0.040047 -0.004066 -0.072351 0.147395 0.108508 -0.060972 -0.176708 0.013401 0.225083 0.373184 -0.067686 0.057507 0.135762 -0.140542 -0.01656 0.29715 -0.002395 -0.130911 -0.174274 -0.091877 0.215224 0.126132
osteoblast -0.032364 -0.239215 0.246645 -0.412915 -0.160328 -0.269484 -0.208106 -0.142964 0.284135 -0.057896 -0.093217 0.440276 0.142961 -0.080942 0.351894 -0.457942 -0.134734 -0.042114 -0.145377 -0.076792 0.139191 0.111491 0.030064 0.392729 0.153293 -0.250793 0.572164 -0.235785 -0.216179 0.242803 -0.439012 -0.249049 0.447115 -0.188746 -0.268272 -0.162687 -0.419062 -0.384102 -0.225981 -0.062524 -0.669059 0.066046 -0.150776 0.240255 -0.100623 0.21186 0.146301 0.027243 0.095981 -0.590516 0.018473 -0.549029 0.053759 -0.022356 0.128616 -0.017361 -0.329481 0.148794 0.126342 0.106008 0.20234 0.25353 0.010346 0.53861 0.39323 -0.216936 0.207869 -0.226309 -0.021021 0.24949 -0.332171 0.004075 0.019109 -0.287462 0.433436 0.062881 -0.026194 -0.172752 0.164376 0.196948 0.237553 0.115951 -0.230716 0.143382 -0.189237 -0.253877 -0.313632 -0.044877 0.099113 0.504038 -0.217385 -0.299734 -0.007793 0.317848 -0.027153 -0.078165 -0.438655 -0.000161 -0.146371 -0.038162 0.207777 0.626103 0.044932 -0.000618 0.011311 0.474767 0.02966 -0.44951 0.420548 -0.322562 0.274326 0.081556 0.265246 -0.216416 -0.083359 0.0446 -0.011275 -0.130379 -0.068629 -0.320918 -0.254522 -0.103486 0.106054 0.372731 0.035253 -0.081042 0.219783 -0.14553 0.260659 0.328468 -0.260405 -0.371961 -0.04273 0.125059 -0.309706 -0.147691 0.02901 -0.316312 0.642753 -0.219668 0.023011 -0.091393 -0.16527 -0.198479 0.158901 -0.014485 -0.564115 -0.178676 0.028486 -0.200059 -0.040651 -0.076585 -0.697002 -0.113329 0.090376 0.030195 0.159048 -0.295144 -0.640662 -0.057331 -0.352845 -0.26433 0.212094 0.14552 -0.203919 -0.076999 0.084654 0.045493 -0.207315 -0.10117 -0.067706 0.158546 0.023595 -0.251231 0.591402 -0.317958 -0.221882 0.15943 0.072437 0.123662 -0.046332 0.239811 -0.043489 0.103502 0.339351 -0.082416 0.249662 -0.102957 0.101561 0.136196 0.277158 0.074774 0.472502 0.191571 0.024073 0.182233 -0.128406 0.046302 0.099767 -0.197254
pigment -0.078965 -0.145417 0.316351 -0.379018 0.41152 -0.424689 -0.19589 -0.098566 0.188116 -0.036205 -0.151234 -0.152586 0.093619 0.031078 0.131786 -0.055548 0.011024 -0.229301 0.147234 -0.282224 -0.217077 0.117818 0.119044 0.492763 -0.487848 -0.131418 0.465899 0.225651 -0.069952 0.256987 0.489316 0.283275 0.382572 -0.48008 0.177884 -0.20038 -0.146212 0.434476 0.102875 -0.008058 0.196168 -0.459522 -0.101813 -0.065042 0.147443 -0.267827 -0.083605 -0.001579 -0.399424 -0.323245 0.302874 -0.259183 0.187122 0.300795 0.016839 -0.101209 -0.285294 0.139883 -0.027612 0.460818 -0.164486 -0.118936 -0.353876 -0.153924 -0.037474 0.378975 0.235107 0.49812 0.029988 0.096611 0.047478 0.155812 0.290942 0.179435 0.030742 0.34554 0.112072 -0.195573 -0.051189 -0.270004 0.445164 0.10582 0.166752 0.057122 0.031979 -0.079738 0.126167 -0.155473 0.121026 0.042105 0.036612 0.150136 0.000907 -0.125732 0.153673 -0.023878 -0.23932 -0.006855 0.101321 0.092473 -0.017355 0.217376 -0.030013 0.213851 -0.030263 0.459748 0.487174 0.148658 0.337265 -0.344772 0.123379 0.015682 0.11991 0.019331 0.01963 -0.344964 -0.005275 0.096065 0.221759 -0.133479 0.009009 0.04177 -0.007871 -0.070391 0.244165 0.338556 0.062335 0.270702 0.379653 0.347378 -0.014865 0.052041 -0.449297 0.274095 0.022942 0.386761 0.197647 -0.093346 0.08055 0.048275 -0.01935 0.13252 0.04887 -0.051486 0.096208 -0.250855 0.065204 0.177694 -0.57223 0.038684 0.602214 0.305461 0.121211 0.30627 0.103815 0.100827 -0.216849 -0.180177 -0.829942 -0.642673 -0.409517 0.438698 0.100169 0.025437 0.050485 -0.029393 0.208927 -0.122071 -0.18652 -0.021237 0.075494 0.190321 0.062055 -0.158975 -0.336103 -0.387985 0.045894 0.173957 0.030922 -0.024062 -0.25207 0.311675 0.413013 -0.209833 0.112676 -0.111549 -0.357597 -0.023566 0.043509 -0.146119 -0.130363 -0.205452 -0.185947 -0.394247 -0.018108 -0.004853 -0.059659 -0.087541 0.135064 0.100367
vitreous -0.090691 -0.013021 0.095735 -0.464996 0.41698 -0.10951 -0.252742 -0.144251 -0.270582 -0.106663 0.113197 -0.202772 -0.044903 -0.192592 -0.029447 -0.090399 -0.098098 0.016694 0.02995 0.007967 -0.356077 0.147338 0.101535 0.503872 -0.554735 -0.617158 0.170394 -0.00835 -0.205881 -0.021238 -0.03321 0.10919 0.810055 -0.295078 0.35351 -0.300998 -0.392779 0.254349 0.112269 -0.007543 0.114339 0.040552 -0.416006 -0.135465 0.259187 -0.347675 0.102239 -0.197021 -0.332114 -0.001937 0.134429 0.217022 0.022333 -0.041856 -0.018608 -0.074482 -0.623629 -0.015803 0.062192 -0.056929 -0.343747 -0.228313 0.034889 -0.263454 -0.431186 0.102601 0.252138 0.14785 -0.359186 0.210628 0.222938 0.392391 0.029543 0.346026 -0.216642 0.301413 -0.333926 -0.05854 -0.082125 -0.503195 0.11742 0.207685 0.111689 0.090935 -0.078857 0.302562 0.191759 0.185254 0.106156 -0.155914 -0.036531 0.080308 -0.177251 0.073659 0.258992 -0.181673 -0.157721 -0.122916 0.316445 -0.092785 -0.364887 0.173007 -0.123821 0.084408 -0.170083 0.014404 0.19214 -0.214143 0.208426 -0.303716 0.099413 0.325441 -0.173605 -0.038382 -0.154983 -0.254875 0.265764 0.078875 0.064523 -0.545778 0.539555 0.065378 -0.120062 -0.079409 0.14445 -0.176104 -0.009813 0.207853 0.186751 0.475647 -0.259817 0.063915 -0.219303 0.004071 0.106807 0.282706 -0.133628 -0.287471 0.215562 -0.09073 0.147296 -0.28632 -0.246204 -0.100087 0.318727 0.107272 0.206521 0.077153 -0.209575 0.591323 0.437965 0.087476 0.319303 0.20584 0.258948 0.486573 -0.359025 -0.079495 -0.388202 -0.44855 -0.465788 0.195402 0.169486 0.454104 0.077768 -0.466825 0.366945 -0.237645 0.101897 0.191619 0.295416 0.328312 -0.261905 -0.185778 -0.231287 0.06577 -0.415195 0.045188 -0.134214 0.211501 -0.19504 0.34235 0.116594 -0.192536 -0.475004 -0.055012 -0.135314 0.096845 -0.104047 0.171158 -0.072494 -0.321745 -0.084368 -0.079604 0.263292 -0.091496 0.009348 0.029579 0.206847 -0.154066
hibernating -0.023843 0.03901 0.092515 -0.049231 0.062532 0.3232 -0.065488 0.18425 0.58717 0.19917 0.266171 -0.308134 0.211923 -0.105295 -0.122897 -0.252705 -0.111463 -0.272112 -0.213328 -0.262624 -0.043957 -0.05798 0.434661 0.16248 0.020211 0.158669 0.142636 0.003151 0.34887 0.158031 0.006617 0.017275 -0.352442 -0.173222 0.209771 -0.066606 -0.244269 0.086807 0.029732 -0.01412 0.028907 -0.062476 -0.161998 -0.301936 0.388007 0.354734 0.196726 -0.274691 -0.202074 0.015273 0.221067 -0.290424 0.015403 -0.14574 -0.091463 0.102528 -0.210919 0.312403 0.212787 -0.46465 -0.176542 -0.081345 -0.037204 -0.158457 0.26955 -0.203824 0.099133 -0.036183 0.199894 0.101245 0.202235 -0.050914 0.283619 -0.490666 0.240399 -0.285878 -0.240855 0.047118 -0.066889 -0.104924 -0.47267 0.003738 0.011838 0.182118 0.262884 -0.297606 0.443617 -0.211577 -0.062649 0.083355 0.305529 -0.284819 0.161777 -0.122992 0.07627 0.434061 0.030694 -0.315889 -0.007089 0.325606 -0.347761 -0.178716 -0.206234 0.2994 -0.168178 0.215868 -0.322644 -0.163564 0.684884 -0.145356 0.408795 0.158861 -0.240424 -0.130577 0.306968 -0.031777 -0.072928 0.13176 -0.035607 0.215816 -0.117385 0.189491 0.195125 -0.199744 0.303612 -0.384313 -0.075158 -0.253688 0.030995 -0.040496 -0.461177 -0.217505 0.634306 -0.344357 0.31041 0.166658 -0.33216 0.110661 -0.259696 -0.323158 0.415722 0.195234 -0.352759 0.104792 0.089049 0.174947 -0.156316 0.142979 0.256923 0.253404 0.098687 0.461942 -0.232496 0.315237 0.619124 0.141811 0.063901 0.307179 -0.20076 -0.026177 -0.036625 -0.25781 0.108486 -0.083476 -0.034884 0.094903 -0.073184 0.064956 -0.065007 -0.104282 -0.398194 0.006678 0.168688 -0.201163 0.005998 -0.21108 0.308388 0.097014 -0.120958 -0.327149 0.28145 0.126118 -0.226514 -0.068974 -0.035604 -0.323851 -0.180188 0.083061 -0.248177 -0.19338 -0.070098 -0.243245 0.047555 0.236066 0.357929 0.170028 -0.414398 0.151309 0.397059 0.442078
compacta -0.472563 -0.102221 0.315675 0.596229 -0.914705 -0.206189 -0.48845 0.393029 -1.08888 -0.089562 0.79491 -0.961742 -0.366393 -0.313341 0.416597 0.014099 0.043926 -0.603896 0.689083 -0.887251 -0.19013 0.748334 -0.278167 0.641062 -0.096267 -0.38609 -0.05345 0.010597 0.514606 -0.269369 -0.070304 -0.020215 0.043651 0.481763 1.10944 0.057865 -0.651818 1.08184 0.266818 -0.645904 -0.06894 0.04373 0.04578 0.045524 0.73079 -0.117276 -0.18095 -0.249824 0.164299 -0.803434 -0.575401 -0.107516 -0.487281 0.732293 1.13769 0.216273 -0.591195 0.061683 -0.991856 -0.586256 0.320925 -0.75991 0.067317 -0.155353 -0.184076 -0.743492 -0.259616 0.278058 0.06962 0.552786 -0.115369 -0.052655 -0.313696 0.245841 0.068998 0.259804 -0.9527 -1.00153 -0.692586 -0.850768 -0.704732 -0.233333 0.019067 0.910176 0.302308 0.429969 0.691537 -0.279195 -0.368432 0.942042 -0.712136 -0.116168 0.337953 -0.29219 0.124821 -0.047633 -0.706663 0.368361 -0.410439 0.417237 0.266919 -0.372062 0.035358 0.408792 0.426054 -0.3507 0.497979 0.127376 0.602928 -0.333054 -0.072968 -0.093815 -0.702047 -0.847687 -0.148447 0.158129 -0.066007 0.547406 0.222871 0.508636 -0.09422 -0.172134 -0.19989 0.520262 -0.028278 -0.283135 0.175088 0.154868 0.509644 -0.813133 0.042273 -0.049598 0.128164 -0.10903 -0.370928 0.472183 -0.045516 -0.335324 0.259616 -0.265819 1.19557 -0.121203 -0.429347 0.130334 0.589464 0.235136 -0.061642 -1.26725 0.66096 0.56086 0.209995 0.607595 -0.510648 0.703018 -0.623862 -0.526832 -0.136742 0.098949 -0.718742 -0.018854 -1.03451 -0.315444 -0.024291 0.366063 -0.106362 -0.443258 -1.48836 -0.654058 0.264842 1.36114 0.208572 -0.297551 0.25226 0.374501 0.28323 -0.312483 0.254581 0.033496 -0.396321 0.771186 -0.299192 -1.31146 0.662165 -0.680879 -0.658426 0.579447 0.102036 0.028378 -0.99543 0.077976 -0.017302 -0.051578 -0.696815 0.417226 0.044577 -0.50466 -0.442618 0.371026 0.87641 0.510456
semimembranosus -0.382281 -0.034972 -0.173066 0.02795 0.48385 0.596972 -0.326706 0.003768 -0.017095 0.263824 0.475033 0.388689 0.577563 0.295632 -0.348367 -0.114602 0.491161 -0.667764 0.099343 -0.924714 0.058277 0.31957 0.784688 -0.18992 -0.501887 -0.256805 -0.292072 -0.139127 0.239613 -0.041384 -0.299734 0.433866 -0.278207 -0.002444 -0.017254 -0.238893 0.507255 0.475594 -0.016536 0.383464 -0.261058 -0.028848 -0.072309 0.539008 0.01267 0.267265 0.065525 -1.25195 0.126419 -0.530554 -0.203129 -0.187677 0.133122 -0.086432 0.177241 0.15657 -0.155932 0.169312 -0.287356 -0.202658 -0.568245 -0.302712 0.596041 0.542447 -0.626607 -0.260151 0.223438 0.798259 -0.081023 0.008164 0.385845 -0.504711 0.372857 0.364804 0.527257 0.111701 -0.300994 0.145853 0.365307 0.363812 -0.133421 0.589396 -0.278095 -0.085574 0.202552 -0.124875 -0.238873 -0.059802 -0.688153 0.072733 0.54405 0.022687 0.269792 0.330953 0.238644 0.214108 -0.030576 -0.253504 -0.038157 0.344781 -0.004293 -0.702627 -0.581404 0.466593 -0.071035 -0.292767 0.093622 -0.343564 0.489937 0.346487 0.369328 -0.053017 0.092006 -0.243381 0.039506 -0.150511 0.185954 0.189142 0.350637 0.31651 0.4447 -0.19964 0.29838 -0.54438 -0.111205 0.139548 -0.104314 -0.010899 0.594353 -0.020804 -0.011051 -0.342571 0.619513 -0.56948 -0.481035 0.069551 0.0534 -0.454323 0.231217 0.267726 0.427583 0.38576 0.386338 0.275271 0.105911 -0.082128 0.220357 0.050454 -0.332739 0.36086 -0.82278 -0.399268 -0.090595 0.01504 -0.607141 0.06878 -0.550783 -0.246081 -0.064006 -0.027823 0.139827 0.258578 0.028417 -0.341282 0.043526 -0.082234 0.370666 0.11309 -0.153304 -0.146685 0.183089 0.221083 0.434345 0.052569 -0.251312 0.013916 -0.088214 0.061934 -0.837668 -0.06872 -0.187935 -0.049787 0.188273 -0.514074 0.114999 -0.101655 -0.125842 0.131019 -0.043625 -0.342439 -0.038454 -0.600568 -0.795436 0.173507 0.39893 0.218201 0.105703 0.241102 0.478957 -0.469236
acinus 0.067567 -0.331435 0.035449 -0.388613 0.238165 -0.177975 -0.194087 -0.203646 -0.008465 0.072792 -0.070543 -0.17935 0.00644 -0.046724 -0.137146 -0.120557 -0.084986 -0.139531 -0.145655 0.209848 0.030532 -0.197696 0.053334 -0.034618 -0.186756 0.169998 -0.070548 -0.316187 -0.029969 0.286977 -0.137104 0.216537 0.15328 -0.22878 0.08795 -0.006734 0.138189 -0.020057 -0.324259 0.074758 -0.035434 -0.373555 0.207178 -0.030352 0.169211 -0.215608 -0.072756 -0.06929 -0.067111 0.031681 0.035951 0.068531 -0.014872 0.107663 -0.461408 -0.018039 -0.099695 0.265583 0.136957 -0.163745 -0.038301 -0.375614 -0.085564 -0.247297 0.443721 0.082481 -0.054487 0.104879 0.183341 -0.123277 -0.289635 0.143054 -0.167082 0.046642 -0.02752 0.399075 -0.147073 -0.051402 0.535162 -0.22481 -0.105694 0.331478 0.137827 0.71923 0.140092 0.169858 0.091344 -0.036094 0.103859 0.357665 -0.025899 -0.171306 0.04869 -0.259358 -0.053466 0.039084 -0.296288 -0.110411 -0.030625 0.430724 -0.021334 -0.064518 -0.152164 0.118423 -0.526924 0.48113 -0.181803 -0.252363 0.276781 -0.70742 0.047761 0.242855 0.015999 0.029243 -0.009409 0.009572 0.076591 -0.031251 0.010438 0.022492 -0.242106 0.156527 0.014021 0.209749 -0.177114 -0.036554 -0.014759 0.310248 0.096999 0.097856 -0.02545 -0.173275 0.039771 0.088751 -0.137317 0.239644 0.076947 -0.311328 0.202308 0.188746 0.079524 0.16534 -0.330717 0.017361 0.382268 -0.189684 -0.017851 -0.495222 -0.005218 0.258226 0.063496 -0.011887 -0.328134 0.305548 0.140194 -0.117076 -0.046484 -0.317178 -0.202554 0.302369 0.160941 0.002575 -0.08052 -0.054 -0.111633 0.206209 -0.10249 -0.072742 -0.365127 0.067629 0.09243 0.23766 -0.028972 -0.494091 -0.313634 -0.405917 0.061263 -0.111813 0.04626 0.004604 0.054113 -0.116132 0.05808 -0.052826 0.031524 -0.173315 -0.254978 0.367518 0.299284 0.149367 0.231581 -0.011303 -0.047201 -0.408464 0.217521 -0.123742 0.072911 -0.007519 0.270138 0.079337
systemic -0.108104 -0.28682 0.008491 -0.038001 0.279551 0.073393 -0.021348 0.038191 -0.388667 0.077026 -0.066581 -0.27701 -0.036432 -0.586918 0.121448 -0.174486 -0.062582 -0.037826 0.316827 0.14704 -0.004219 0.290781 -0.407302 0.04353 0.087975 0.169456 -0.091541 -0.182303 -0.059144 0.012778 -0.261721 0.064579 0.316313 0.004158 0.276314 -0.453486 -0.152889 -0.358337 0.082023 0.449025 0.146673 0.072899 -0.102526 -0.123882 0.00763 0.159642 -0.117353 -0.049568 -0.133023 0.196911 0.037902 0.185753 -0.237365 0.088548 0.147967 0.084025 -0.045941 0.153053 0.174894 -0.174251 -0.104072 -0.062976 0.20679 0.142617 -0.066108 0.228303 0.328612 -0.460493 0.141817 0.141357 0.07488 -0.137586 0.014278 0.214313 -0.083656 -0.055977 -0.297407 0.236582 0.167898 -0.491074 -0.119207 -0.143506 -0.227352 0.006466 0.291144 -0.185277 0.162199 0.127962 0.151469 -0.16241 -0.01898 0.078507 0.064875 -0.321701 0.11577 0.179393 -0.067377 -0.218703 -0.444579 -0.081882 -0.486397 0.279941 -0.046038 -0.025279 -0.286929 -0.033392 0.096325 -0.049158 0.110444 -0.056129 -0.43232 0.037148 -0.052158 -0.127922 -0.025304 -0.062132 -0.092615 0.340802 -0.05735 -0.027166 0.109196 0.091546 -0.067036 -0.082205 -0.025543 -0.212579 0.123436 0.101882 0.091897 0.133558 -0.03595 0.064455 0.145344 -0.505516 0.02562 0.055778 -0.188845 -0.350926 0.090721 -0.133255 -0.140808 -0.254026 -0.200075 0.125319 0.026627 -0.317968 0.038291 -0.184479 -0.210746 0.113593 0.236119 0.026726 -0.020937 -0.162896 0.400285 0.253138 -0.367123 0.062474 -0.311556 -0.06009 0.029529 0.109765 -0.21683 0.05978 0.016533 -0.029168 0.366694 -0.123361 -0.284268 -0.213044 -0.096142 0.089336 -0.100054 -0.182529 0.045415 0.102348 -0.046271 0.054041 -0.126674 0.10227 0.204001 0.150744 0.21231 0.138285 -0.022799 0.223217 0.213276 0.147494 -0.078742 -0.10492 0.137608 0.217095 0.02094 -0.005442 0.064695 -0.317763 0.210323 -0.294717 0.123635 -0.150256
perivitelline 0.143902 -0.101097 0.066814 -0.396159 0.156182 -0.436174 0.011624 -0.361695 0.188405 -0.207064 0.099164 -0.267765 0.742691 -0.152917 -0.466774 -0.015728 0.287379 0.24533 0.227188 0.488464 0.073082 -0.196891 0.266325 0.31801 -0.773392 -0.084728 0.034176 -0.046132 0.262859 0.39009 -0.218413 0.587568 0.06311 -0.37374 0.183472 -0.677262 -0.005362 0.259485 -0.116652 -0.517741 0.517572 -0.297414 0.248838 0.151744 0.342643 -0.143386 -0.062062 0.019366 -0.271153 -0.151136 -0.161088 -0.080285 -0.15233 0.026336 -0.120799 0.221703 -0.107328 0.104706 -0.188816 -0.214967 -0.100844 -0.079107 -0.811093 -0.561552 -0.161211 -0.23224 0.158756 0.199957 -0.294481 -0.364959 0.013989 0.213634 0.164809 0.081057 0.07058 -0.15167 -0.174342 -0.158488 0.449918 -0.267692 -0.097619 -0.185962 0.240986 0.677991 -0.32329 0.400021 0.299778 0.336068 -0.087238 0.632508 -0.008802 0.583642 -0.228473 0.06171 0.091549 -0.068196 0.247302 0.300793 -0.108765 0.710412 -0.197642 -0.275142 0.068119 -0.099755 -0.091818 0.110233 0.107215 0.129779 0.021226 -0.476528 0.572563 -0.276909 -0.403511 0.048126 -0.645071 0.363647 -0.051382 0.615303 0.576264 -0.160936 -0.033991 -0.286237 0.193737 -0.162072 -0.500901 -0.302318 -0.147487 0.26187 0.409767 -0.380216 0.05298 -0.206202 -0.156931 0.607236 -0.307896 -0.226923 -0.167535 -0.42207 0.165021 -0.341618 0.170754 -0.045876 -0.393978 -0.397282 0.44701 0.173462 0.233833 -0.152231 0.157958 0.642023 0.835393 0.484296 0.29766 0.273722 0.649386 0.100408 -0.197983 -0.46911 -0.378812 -0.279039 -0.634495 0.201684 0.25914 -0.139423 0.109819 0.059574 0.039311 -0.006467 -0.095411 0.372719 0.113938 0.145402 0.096937 0.307487 -0.120712 0.239896 0.175675 -0.041085 0.170535 0.071198 0.124412 0.051874 -0.555269 -0.070717 -0.625908 -0.413687 0.127956 0.167634 -0.134141 -0.298709 0.442999 -0.335164 -0.367051 0.012508 0.217769 0.088445 -0.385766 0.233344 0.460712 -0.340004
colostrum -0.392603 -0.192158 0.117915 0.12207 -0.18214 0.089355 -0.071013 -0.127367 0.273366 -0.095067 -0.211452 -0.012144 0.288406 0.661973 -0.393013 0.135259 -0.201897 0.001233 -0.373347 0.279868 0.069226 0.756638 -0.037571 -0.121823 0.27145 0.085407 -0.258293 -0.319789 -0.37038 0.029761 -0.119208 0.119442 0.177228 0.387858 0.482958 -0.016591 0.072617 -0.362557 0.206919 -0.080626 -0.039499 -0.174677 0.444123 0.147348 -0.028919 0.275695 0.226638 -0.248694 -0.43031 -0.083569 0.142921 -0.342834 -0.210192 -0.080696 0.198917 0.089416 -0.122944 0.45259 -0.02674 -0.123556 -0.241969 0.022024 -0.368025 0.089225 0.008789 0.323473 -0.045224 -0.41045 -0.133495 -0.170474 0.207816 -0.111963 0.641018 0.151583 0.260116 -0.202581 -0.070098 0.069219 0.35179 0.09009 -0.09053 0.333916 -0.118601 0.227468 -0.669504 0.205999 -0.13541 0.387651 -0.314857 -0.186787 0.019751 -0.087689 -0.528144 0.077852 0.38257 0.210967 0.382714 -0.292482 0.191306 0.250732 0.136608 0.19569 -0.506247 0.033095 0.022468 -0.056862 0.142594 0.172803 0.02264 -0.111006 -0.00533 -0.174236 0.178283 -0.156497 -0.49732 -0.279223 -0.042225 -0.112778 0.418353 0.069741 0.097993 -0.024953 0.286101 -0.111841 -0.161419 -0.345624 -0.049285 0.040244 0.761359 0.015115 -0.123292 0.264416 -0.232296 -0.254344 -0.136456 0.394101 -0.191513 -0.172823 -0.034594 -0.077882 0.017379 0.063555 -0.110702 0.126446 0.427102 0.231593 -0.336019 -0.208567 -0.016023 -0.08287 -0.094504 0.183858 0.445792 0.187914 0.185058 0.2143 -0.207876 -0.424005 -0.02531 0.265814 -0.17796 -0.017802 0.483859 -0.158669 -0.3577 -0.161552 0.374012 -0.284753 0.092315 -0.264449 -0.056765 -0.216294 -0.033484 0.272941 -0.085531 -0.014679 0.001424 0.467567 -0.213435 0.080534 -0.131551 0.144679 -0.105507 -0.332088 0.164951 0.187867 0.033138 -0.09312 -0.112008 -0.220483 0.180987 -0.298776 -0.055347 0.046832 0.174665 -0.101478 -0.082818 0.116686 0.209535 0.016612
centroacinar -0.071722 -0.264529 0.034284 -0.790644 -0.165919 -0.306929 -0.101237 -0.189513 0.456725 0.412321 0.400795 -0.144914 0.163234 -0.004816 -0.24312 -0.097033 0.023016 0.252871 -0.282884 -0.227411 0.325191 -0.506748 0.106764 0.098974 -0.257094 0.219543 0.152238 -0.225268 0.088821 0.297152 0.109426 0.21118 -0.114748 -0.296324 0.065454 0.351367 -0.044863 0.014187 -0.192037 -0.182304 -0.422569 -0.36523 0.245598 0.346472 0.05123 -0.284567 0.383743 -0.340386 -0.180721 -0.14871 0.007716 0.243177 0.121588 0.36649 -0.479073 0.141339 -0.238005 0.560475 -0.122119 -0.072586 0.318495 -0.471548 0.006328 -0.364755 0.137389 -0.27276 -0.018442 -0.06973 0.787618 0.007943 -0.345547 0.297284 -0.093528 0.086402 0.221085 0.011902 -0.187091 0.194158 0.348006 0.145917 0.076791 0.769727 -0.078163 0.40214 0.090572 0.270381 -0.008634 0.021807 -0.204073 -0.178541 -0.208021 0.031718 -0.392856 -0.278641 -0.245052 -0.160885 -0.197755 0.052214 -0.47235 0.189357 0.105196 0.009141 0.105999 0.264481 -0.29244 0.564396 -0.048435 -0.08761 0.120062 -0.6547 0.427685 0.395998 -0.031207 -0.106645 -0.099879 -0.31441 0.21207 0.029285 0.103945 -0.119857 0.04636 0.578815 0.288711 0.615466 -0.187101 -0.103764 -0.200012 0.458379 0.698358 0.223992 0.105623 -0.350108 0.202755 0.299906 0.18232 0.148354 0.53027 -0.365502 0.08112 -0.116436 0.183271 0.444171 -0.159538 -0.066788 0.386358 -0.475356 -0.420775 -0.335942 0.056065 0.357901 0.282177 -0.394415 -0.373635 0.154673 -0.002371 -0.246352 -0.088606 0.148633 0.12581 -0.049918 -0.189661 -0.021337 -0.350721 -0.093401 -0.27239 0.245459 0.178623 -0.136402 -0.156099 0.125255 -0.335518 0.022876 0.113046 -0.246684 -0.511063 -0.371916 -0.109523 -0.330348 0.14207 0.100178 -0.127238 -0.449262 0.340671 0.286487 0.108196 -0.237582 -0.356431 0.610482 -0.242374 0.318316 0.320078 0.040985 0.024381 -0.248566 -0.01263 -0.187334 0.247033 -0.278874 -0.1723 0.030697
peduncle -0.475539 0.08404 0.679673 -0.403261 0.231777 -0.163714 -0.356283 -0.250023 -0.076675 0.272885 0.076529 -0.259415 -0.096629 0.278496 -0.084235 -0.274688 -0.175151 -0.423456 0.63086 -0.373949 -0.101718 -0.014102 0.406825 -0.080019 -0.570908 -0.070838 -0.274284 0.189364 0.280149 -0.081535 -0.027345 -0.42413 -0.183368 0.357328 0.420359 -0.241198 -0.156761 0.040046 -0.127638 -0.293112 0.059849 0.306096 -0.469479 -0.358075 0.281586 0.33163 0.255528 -0.159412 0.296165 -0.325849 -0.161727 0.355952 -0.046816 -0.147851 0.257392 -0.144326 0.098941 -0.108684 -0.086552 0.19588 -0.13399 -0.508014 0.314172 -0.147307 0.22976 -0.128517 0.768946 0.178581 -0.525557 0.257877 -0.072033 -0.006963 0.222745 0.528405 0.367188 0.103165 -0.290635 -0.360851 0.482937 0.644936 0.328906 0.429562 -0.39754 0.321458 0.195265 0.077533 -0.456999 -0.055608 -0.065683 -0.292022 -0.250936 -0.192308 0.020551 -0.131592 0.117895 0.351528 -0.050196 0.017847 -0.053946 0.305369 -0.033702 -0.470455 -0.337832 0.519185 0.491448 -0.054549 -0.003005 0.147075 0.23363 -0.451543 -0.079882 -0.031695 -0.271332 -0.40351 0.055893 -0.130945 0.240323 -0.02911 0.119316 -0.109624 0.190588 0.065088 -0.148751 0.076829 0.141827 0.01504 -0.237694 0.612755 0.130045 -0.1779 0.065055 -0.41859 0.046123 0.192273 -0.231418 0.434318 0.095561 -0.665536 -0.278158 -0.045345 0.127132 0.331301 -0.171262 0.374714 0.239461 0.345981 0.389146 -0.5118 0.015477 0.310151 -0.027759 0.152514 0.036962 -0.197855 -0.39511 -0.275305 -0.621682 0.293848 0.098346 -0.646359 -0.330039 0.51588 -0.022537 0.336142 -0.198658 -0.449397 0.200164 0.223118 -0.31683 0.53166 -0.099343 0.130961 -0.243924 0.01308 -0.489492 -0.010377 -0.019743 0.207649 -0.100108 0.10738 0.023912 -0.482323 0.095947 -0.056117 -0.265456 0.339964 0.377082 -0.150061 -0.103491 -0.179454 0.05591 0.128276 -0.044447 0.029315 -0.086693 -0.367434 -0.653824 0.25327 0.523803 0.655221
chondrocyte 0.040288 -0.011833 0.126569 -0.139064 -0.071294 -0.155051 -0.103289 -0.131688 0.081281 -0.136094 -0.224874 0.189057 0.332328 -0.377107 0.40498 -0.461354 0.170586 -0.275685 -0.231331 0.087463 0.373755 0.037537 0.178556 0.571882 -0.25317 -0.018143 0.330026 -0.166113 -0.05824 0.345548 -0.278915 0.291847 0.296884 -0.210682 -0.318914 -0.240731 -0.474742 -0.159482 -0.219789 0.179776 -0.400952 0.031973 -0.358054 0.551099 -0.019531 0.218049 0.248148 -0.14424 -0.106558 -0.424513 0.12982 -0.387742 -0.249813 -0.099564 0.262936 -0.01268 -0.192945 0.329993 -0.046468 0.151867 0.190195 0.130264 0.058909 0.367543 0.259508 -0.227034 -0.1671 -0.233102 -0.127081 0.084371 -0.136936 -0.229918 -0.089095 -0.149216 0.420426 0.098814 0.072854 0.124738 0.148064 0.197108 -0.211437 0.162168 0.013171 0.401335 -0.170159 -0.377472 -0.466953 0.153445 0.133714 0.364167 -0.011237 -0.206201 0.014148 0.545167 -0.02756 -0.115262 -0.489469 -0.042593 -0.165012 0.12078 0.149927 0.325478 0.145801 -0.097924 -0.058983 0.498414 -0.141313 -0.313554 0.311966 -0.286444 0.161242 0.106234 0.33211 -0.299774 0.148566 -0.076984 0.217238 0.134709 0.068159 -0.43912 -0.130126 -0.175985 0.122377 0.234704 -0.091407 -0.059429 0.190185 -0.030382 0.280638 0.170394 -0.081747 -0.402972 0.009121 -0.188348 -0.395726 0.103729 -0.099567 -0.370059 0.519493 -0.250342 0.053421 0.022533 -0.201744 -0.229394 0.107822 -0.063612 -0.61855 -0.099523 0.002045 -0.133625 0.053177 0.062094 -0.716306 0.049858 0.041023 -0.041436 0.056046 -0.143218 -0.558719 -0.090107 -0.567819 -0.190024 0.283674 0.390831 -0.130645 -0.278107 0.022838 -0.064691 -0.335606 -0.155831 -0.087118 0.16235 -0.347627 -0.196949 0.444576 -0.040197 -0.184593 0.400047 -0.016979 0.170149 -0.164302 0.395574 -0.177043 0.144971 0.221411 -0.164464 0.438274 -0.073543 -0.181176 0.047693 0.115456 -0.107161 0.53937 0.321717 -0.112215 0.126056 -0.04651 0.084219 0.061363 -0.257724
pleura 0.003055 -0.136004 -0.092205 -0.210051 0.1253 0.391397 -0.276115 0.18823 -0.040443 0.002346 -0.147082 -0.010529 0.249743 -0.644353 -0.212689 -0.509572 -0.227383 0.196675 0.037217 0.118784 0.011837 -0.096736 0.123388 0.197923 -0.375211 -0.119443 -0.345547 -0.689649 -0.063757 -0.473304 -0.109314 -0.168627 0.148826 -0.096658 0.458876 0.172038 0.003796 0.156256 0.130243 0.397888 -0.168448 -0.116396 0.432111 0.027431 0.521428 -0.043284 0.109333 0.054992 -0.126996 -0.281638 0.014721 0.278095 -0.065556 0.305669 0.044827 -0.17219 -0.331105 0.549899 0.16884 0.117609 -0.128655 -0.214134 0.365297 -0.775348 0.094309 -0.055114 0.466978 0.144008 -0.599417 -0.024935 -0.469381 -0.016617 -0.252836 -0.048762 0.202479 0.055647 -0.023583 0.157515 0.365235 -0.240919 -0.259538 0.207673 0.156583 0.145204 -0.172178 0.131497 0.117511 0.127148 -0.137296 -0.103751 0.260202 -0.290643 -0.20508 -0.196821 0.121969 0.005074 -0.359274 0.002524 -0.437708 0.14346 -0.486144 -0.030597 -0.560472 0.25409 0.092754 0.325664 0.031091 -0.245887 0.315263 -0.188093 0.172162 -0.040693 -0.239224 0.06999 0.367769 0.205285 0.065246 0.08477 -0.095538 0.003955 0.259468 0.1998 0.385821 0.14969 -0.335103 -0.51601 -0.239539 0.034699 0.18642 0.017238 0.362953 -0.3427 0.013498 0.136486 -0.378937 -0.187005 0.401838 -0.329493 -0.250355 0.250581 -0.138883 -0.339184 -0.522247 0.187299 0.055861 -0.36645 0.446065 -0.280376 -0.316825 0.635342 0.093437 -0.133883 -0.045353 -0.139456 0.219957 0.22533 -0.367886 -0.146932 -0.01145 -0.035545 -0.237976 0.033382 0.183392 -0.201275 0.035024 0.136439 0.176311 0.233317 -0.123692 0.126018 0.27489 0.334094 0.184566 -0.336631 -0.591387 -0.044288 -0.278649 0.027363 -0.189185 -0.076556 0.122673 -0.438581 -0.042743 -0.090934 -0.271437 0.008685 0.275319 0.444156 0.071598 -0.190779 -0.005923 -0.363822 -0.331785 -0.095098 0.069917 -0.396686 -0.108703 0.013883 0.100168 0.037661
pubic 0.060892 -0.07961 0.664461 -0.275016 0.028596 -0.125065 -0.253067 -0.333914 -0.344991 0.039004 0.038595 -0.032597 0.143172 -0.190481 0.359269 -0.370112 -0.156948 -0.4506 0.111991 -0.580141 -0.030003 -0.148763 0.244129 0.019788 -0.57846 -0.236965 0.105279 -0.178033 0.466276 -0.064925 -0.340882 -0.054022 -0.180316 0.048266 0.200712 0.37479 0.390492 -0.310994 -0.093579 -0.17066 -0.520288 0.217114 -0.116035 0.500006 -0.186317 -0.026903 0.514663 -0.188748 0.093587 -0.1756 -0.149608 0.010424 -0.424421 -0.200932 0.054516 0.111242 -0.051985 0.015442 -0.060089 0.483841 -0.223851 -0.193206 0.382633 -0.326315 0.245668 -0.151382 0.280196 0.070201 -0.104475 0.057299 0.007748 -0.251463 0.061542 0.4348 0.64653 -0.53017 -0.40611 0.372341 0.198434 0.290387 0.564135 0.215925 0.038089 -0.1569 -0.253666 0.266677 -0.156899 0.362653 -0.067056 0.271354 -0.324544 -0.269575 0.046612 -0.033005 -0.156875 0.04879 -0.35061 -0.507156 0.127202 0.095765 0.138676 0.004587 -0.361122 0.550382 0.175972 0.181592 -0.113911 -0.06275 -0.036999 -0.543101 -0.019368 -0.236392 -0.277175 -0.455066 -0.210231 -0.025677 -0.005764 -0.097091 -0.204256 -0.472232 0.387539 0.40111 -0.059846 -0.174589 -0.305018 -0.237643 -0.430378 -0.231679 0.56904 -0.113961 0.230908 0.14185 -0.178417 0.078439 -0.089216 0.084742 0.175462 -0.524407 -0.046338 0.271338 0.036054 0.371949 -0.114917 0.294482 -0.196526 -0.15602 0.121106 0.100056 -0.164714 0.374941 0.125666 0.322111 -0.101686 0.42927 -0.192072 0.769974 0.076592 -0.017402 0.026405 -0.243404 -0.339063 0.211325 0.228134 0.451438 0.173281 -0.148947 0.377367 0.10495 -0.359544 0.093916 0.005717 0.411298 -0.135804 -0.057094 0.102746 0.133444 -0.457021 0.319327 -0.24585 0.090014 -0.155657 -0.144206 -0.220525 0.16489 -0.482431 -0.035993 0.472356 0.273594 0.024239 0.12884 -0.242263 -0.257844 -0.376703 0.131828 -0.25338 0.110277 -0.105637 0.251627 -0.082666 -0.045793
direct 0.070147 -0.079103 -0.09002 0.011841 -0.201823 0.087738 -0.186934 0.243057 -0.242379 0.021652 0.160917 0.06502 -0.043287 -0.154392 -0.014279 -0.122123 -0.0401 -0.152083 0.137611 -0.147982 0.000355 0.112532 -0.215423 0.107466 0.074955 -0.203953 -0.119837 -0.098387 0.079487 -0.111847 -0.012859 -0.213565 -0.166991 -0.130049 0.243652 0.10425 0.029244 -0.014248 0.140725 -0.116927 0.168962 0.107112 -0.198529 0.187685 -0.183322 0.14586 -0.148729 0.054304 0.107647 0.153613 0.245765 -0.251687 0.252609 0.163852 -0.087489 -0.111551 -0.019343 0.059975 -0.024521 0.35192 0.364161 0.046462 -0.100387 0.010715 0.304626 0.054482 0.082967 -0.321492 0.100431 -0.069807 -0.132347 -0.055121 0.033428 0.08651 0.001375 -0.183499 0.079468 0.292075 0.144507 -0.13813 0.075192 0.073636 -0.224563 -0.146107 -0.099098 0.048361 -0.081271 -0.04393 0.189696 0.066347 -0.02404 0.049766 0.103243 -0.134227 0.070481 0.027238 -0.199263 0.072596 0.11983 0.058202 0.031912 0.165464 0.029716 0.002631 -0.206792 -0.104429 0.098128 -0.058655 0.242558 0.066381 0.049243 0.152303 0.134766 -0.000616 -0.125442 -0.146914 -0.17991 0.055406 -0.014925 0.004887 -0.100815 -0.316814 -0.136431 -0.320499 0.165073 -0.215734 0.024915 0.001897 0.202991 0.393253 0.172666 -0.255285 -0.175264 0.220349 -0.118301 0.096854 -0.21661 -0.006555 0.010061 -0.244213 -0.202618 -0.268056 -0.210044 -0.055639 -0.054753 -0.053419 0.039674 -0.095945 -0.080067 -0.17286 0.032489 0.154929 -0.163273 -0.059512 0.106755 0.057379 -0.26796 0.167109 -0.169338 0.118868 0.208245 0.248803 -0.044639 0.034185 0.085225 0.009041 -0.027505 -0.069194 0.211513 -0.168718 0.182711 0.308215 -0.09116 0.045541 0.012978 -0.246149 -0.000403 -0.152065 -0.092619 0.188996 -0.016286 0.052139 0.129105 -0.029776 0.042793 -0.128979 0.11452 0.049393 -0.049296 -0.228189 0.039816 0.052198 0.047131 -0.011819 0.165294 -0.166882 -0.223759 -0.172108 0.117338 -0.081687
immunoblast 0.068558 -0.074329 0.16994 -0.239626 -0.034028 -0.006763 0.11603 -0.204996 0.542406 0.326539 -0.194647 -0.129804 0.288508 -0.288715 -0.146321 -0.079486 -0.141716 -0.008712 0.01731 0.326159 -0.364834 -0.091655 -0.034623 0.125167 -0.105198 -0.256282 0.208649 -0.044622 -0.117219 0.019943 -0.253356 -0.00325 0.071226 -0.046942 0.037997 -0.119954 -0.053787 -0.04037 -0.039707 0.123285 0.019764 -0.172487 -0.011922 0.319416 -0.085367 -0.07749 0.059068 -0.329213 -0.057444 -0.48083 -0.132126 -0.145597 -0.348526 0.242427 0.074292 -0.106371 -0.108945 0.238968 0.010008 -0.083896 0.040032 0.019803 -0.09267 -0.001061 0.087617 0.083215 0.096457 -0.162182 0.072314 0.044513 -0.362909 0.245125 0.075761 -0.045232 0.253995 -0.225053 -0.06601 0.030774 0.297417 0.041883 0.057088 0.216864 -0.083672 0.104339 0.022939 -0.025267 -0.067422 -0.167928 -0.053303 -0.12675 -0.238244 -0.065828 -0.089448 0.014025 0.060075 -0.024226 -0.106544 -0.07884 -0.155713 0.014745 0.418445 -0.183869 -0.093511 0.168792 -0.285516 0.317277 0.11232 0.205333 0.168532 -0.16389 0.191857 0.200079 0.001346 0.063879 -0.20328 0.217899 -0.056483 0.405415 -0.055958 0.220194 -0.089692 0.184057 0.04688 0.35758 -0.005044 -0.128474 0.016782 0.131882 0.286635 0.074482 -0.059134 -0.046648 0.117027 -0.029795 -0.12901 -0.095949 0.344503 0.006037 -0.10643 -0.052617 0.007616 -0.024111 0.168176 -0.073009 -0.036664 -0.033836 0.014939 -0.15795 -0.173366 0.244554 0.029309 -0.237404 -0.107853 -0.309597 0.232117 0.040632 -0.225536 0.195873 -0.018925 0.072441 -0.018816 0.095139 -0.099634 -0.008524 -0.199829 0.0775 0.050959 -0.026816 -0.08204 0.119235 -0.084032 -0.0174 0.031208 0.013427 0.064456 0.008443 0.039411 0.005938 0.105558 0.257464 0.055277 0.103198 0.115049 0.005007 -0.039258 -0.164293 0.068876 0.066301 -0.11592 0.323201 0.373424 -0.257411 -0.001537 -0.113362 -0.093389 0.029744 0.180971 0.163784 -0.129236 0.125687
horn -0.287871 0.025137 0.55805 -0.064594 -0.253862 0.221061 -0.384248 0.144876 -0.148427 0.182251 -0.046938 0.080577 -0.182709 0.242643 -0.207093 0.442159 0.188556 -0.589246 0.231528 -0.336087 0.106837 -0.230815 0.28125 -0.093811 -0.333528 0.043892 0.222767 -0.354624 0.007845 -0.230966 -0.186758 -0.165471 -0.466645 0.40423 0.257304 -0.139871 -0.030557 0.292872 -0.143143 -0.1736 -0.220094 0.050092 0.003669 -0.295069 -0.008265 0.311145 -0.055163 -0.294477 -0.095405 -0.071659 -0.45482 0.095298 -0.287499 -0.091719 0.21968 -0.268231 0.04068 0.059151 -0.514567 0.068179 -0.03083 -0.365857 -0.022091 -0.621448 0.004768 -0.479096 0.585272 -0.032052 -0.219006 0.160807 -0.402898 0.417269 0.418631 0.192089 0.326988 -0.179379 -0.080187 -0.272482 0.005202 0.281967 0.139428 0.015114 -0.148039 -0.027018 -0.17168 0.093882 -0.272819 -0.138098 -0.018242 -0.082324 0.444644 0.252843 -0.268095 -0.246338 0.279374 -0.115293 -0.132311 0.128412 0.045299 0.588329 -0.093638 -0.037456 -0.195802 0.31979 0.189873 -0.176173 0.117564 0.352187 0.271221 -0.32196 -0.011412 -0.348553 -0.142914 -0.626166 -0.43105 0.324396 0.224839 0.309329 0.206706 0.032863 0.211335 0.265336 0.191057 0.054056 0.006376 0.355765 -0.08992 0.468784 0.138164 -0.00726 -0.407237 -0.172462 -0.22942 -0.213657 -0.015986 0.163995 -0.639908 -0.062906 0.221452 -0.263203 0.294048 -0.046329 -0.163967 0.536748 -0.181798 0.06061 -0.027048 -0.412199 0.317531 0.432345 0.264602 0.188817 -0.280621 0.016223 -0.425672 -0.351292 -0.154326 0.509141 0.133159 -0.13773 -0.096484 0.196925 -0.056892 0.09077 -0.312153 -0.334249 0.291975 -0.155655 0.17299 0.304688 0.309836 0.416739 -0.285482 0.111674 0.201565 -0.022614 0.290532 0.409515 -0.525184 0.402128 -0.003144 -0.03254 0.356568 -0.353232 -0.382767 0.114032 0.583356 -0.00937 -0.049616 0.192343 -0.00907 -0.288587 -0.11266 -0.129794 -0.021645 -0.579371 -0.320196 -0.145714 0.612088 0.335411
nail -0.217224 -0.17524 0.146696 -0.341792 0.189411 0.107761 -0.12624 -0.335716 -0.105881 -0.387732 -0.20056 -0.212985 0.084572 -0.087414 0.26598 -0.00114 -0.138399 -0.271815 -0.049817 -0.252671 -0.123931 -0.120155 -0.056251 0.409102 -0.050296 -0.286227 0.272841 -0.196117 -0.092513 0.088625 -0.233215 -0.033935 0.040256 0.192953 -0.090929 0.24663 0.019202 0.132134 -0.022735 0.072636 0.001258 0.155597 -0.290962 0.313173 -0.101588 -0.017633 0.039605 -0.167765 0.04521 -0.11883 -0.195407 0.013509 0.045106 0.156019 0.007754 -0.115992 0.059 0.08854 0.044765 0.02276 0.169096 -0.373532 0.285021 0.073641 0.211736 -0.046975 0.461325 -0.130173 0.035011 0.225815 0.173949 -0.274118 0.148412 0.142416 -0.00177 -0.300925 -0.519276 0.202792 -0.05584 0.011737 0.331508 0.035253 -0.092679 0.22056 -0.065368 -0.14678 -0.020019 0.359174 0.102589 0.170282 0.287758 -0.427703 -0.169021 0.121007 0.14595 -0.318891 -0.223422 -0.288297 -0.088411 -0.186442 -0.522594 -0.071929 0.160698 0.435491 -0.189056 0.21561 0.092037 0.088844 0.037726 -0.079372 -0.216904 0.048193 -0.088657 -0.224594 -0.2036 -0.040617 0.051194 0.410449 0.148217 0.062681 0.291406 0.10059 0.250302 -0.47143 -0.206127 0.284592 -0.071908 -0.251512 0.442246 0.045408 0.053024 -0.089073 -0.125824 -0.122553 -0.245325 0.171607 -0.126291 -0.672528 -0.130585 -0.223063 -0.119415 0.079223 -0.232795 -0.191205 -0.022272 -0.072144 0.450156 -0.026558 -0.052082 0.271626 -0.25193 0.097714 0.046195 0.269194 -0.329342 0.254786 0.160906 0.004464 -0.089297 -0.133068 -0.337199 0.101083 -0.079335 0.41632 -0.170821 -0.340279 0.053571 0.165543 -0.191793 -0.21139 0.082936 0.278555 -0.249477 -0.07554 -0.095575 0.290803 -0.281242 0.48603 0.013568 0.246821 -0.32045 -0.00967 0.251245 -0.113463 -0.426814 0.085422 0.243453 0.033845 -0.117605 0.101434 -0.122159 0.057301 -0.345152 0.294188 -0.174479 0.165267 -0.115971 0.074241 0.01579 -0.361919
second 0.2198 0.007892 0.226334 -0.187764 -0.098086 0.118623 -0.107807 -0.00034 -0.077948 -0.022626 -0.051747 -0.040123 -0.026224 0.043058 -0.306541 0.010315 -0.076591 -0.094162 0.045463 0.163277 0.175484 0.061374 0.089183 0.128898 -0.06987 0.042761 -0.132747 -0.089985 0.122121 -0.129407 -0.156933 0.083002 -0.184578 -0.049542 0.290053 -0.054592 0.099581 0.07501 -0.065524 -0.119704 0.00107 -0.116466 -0.046571 -0.104021 -0.058837 0.043722 -0.191989 -0.003937 0.251062 0.033427 -0.019864 -0.135307 0.172284 -0.311033 -0.008357 -0.069954 0.136718 0.113069 0.023441 0.14463 0.122048 0.291181 0.065158 0.033561 0.245486 0.176509 0.166297 -0.139356 0.148796 -0.00858 -0.087287 0.061309 0.012518 -0.110915 -0.033224 0.099523 0.055992 0.05702 0.370145 -0.302742 0.05953 -0.120749 -0.25782 -0.008016 -0.000232 0.06624 -0.005503 -0.029431 0.030648 0.133653 0.093694 -0.282524 0.241836 -0.013984 0.034763 -0.0993 -0.120548 0.035451 0.043177 0.112366 0.154645 0.0025 0.286979 0.202177 0.080929 -0.029485 0.159438 0.262627 0.153154 -0.231862 0.101969 -0.015078 -0.139535 0.255277 -0.189155 -0.27282 -0.129799 -0.017737 -0.164842 -0.149978 0.082886 -0.236742 -0.026369 -0.21863 -0.087475 -0.190555 -0.341275 0.070764 -0.149011 0.072824 -0.068634 -0.102581 -0.191429 0.016015 0.063193 -0.065622 -0.030467 -0.138346 0.022685 0.263874 -0.155987 -0.12725 -0.012238 0.154138 -0.255166 -0.174671 -0.149653 0.062567 -0.003615 -0.350803 0.227332 -0.245104 0.113737 -0.029961 0.105037 -0.163954 -0.254844 -0.259916 0.158785 -0.133887 0.036854 0.061115 0.048328 0.128466 -0.198023 -0.050395 0.048909 0.015631 0.124327 0.013493 0.115835 0.081883 -0.23887 0.020252 0.258988 0.177898 -0.086543 0.199241 -0.007601 0.083113 -0.257293 0.097749 -0.006476 0.048492 -0.066887 0.034098 0.035818 -4.6e-05 0.241958 -0.129431 0.14756 0.240107 -0.135672 0.170947 -0.090379 -0.204118 0.118022 0.247228 0.091312 0.184183
manus -0.179452 0.235924 -0.001859 -0.426212 0.464038 0.201213 0.058067 0.08069 0.04723 0.484763 -0.188407 -0.312262 0.080653 -0.150984 0.071972 -0.189287 -0.324833 -0.597546 0.30693 -0.248116 -0.263864 -0.509215 0.735879 -0.185247 -0.171911 -0.140304 -0.147539 -0.420311 0.823546 0.012712 -0.661732 0.073381 0.084381 0.396223 0.147323 -0.279456 0.434587 0.295634 0.016525 -0.331873 -0.142994 0.168788 -0.012762 0.412295 -0.21817 0.198058 -0.338572 -0.561173 0.101528 -0.479486 -0.019337 0.005598 -0.280848 -0.022023 -0.078638 -0.170906 -0.115432 -0.409509 0.083504 -0.020575 -0.077752 -0.129395 0.116359 0.106163 0.277178 -0.251782 0.691146 0.060218 0.041432 0.02382 0.185817 -0.571621 0.051291 0.219704 0.394889 -0.179684 -0.350977 -0.034058 0.157604 0.11207 0.039448 -0.02308 -0.569701 -0.207268 0.065132 -0.391598 -0.088022 -0.053001 -0.185905 0.116123 0.301631 -0.371435 -0.003688 -0.206189 -0.062314 0.032316 -0.096797 -0.098688 -0.181342 0.096497 0.246571 -0.210012 -0.249528 0.541924 0.248151 -0.46402 0.157935 -0.10134 -0.008703 0.428852 0.360311 -0.366691 0.067402 -0.251259 -0.343618 0.078965 -0.15646 -0.001738 -0.120351 0.171667 0.404088 0.10739 0.447912 -0.190256 0.171139 0.181484 -0.219366 0.0315 0.650497 -0.16322 -0.1025 0.096767 0.026959 -0.090742 -0.24648 0.203159 0.301956 -0.474194 -0.510993 0.15091 0.085233 0.101292 0.145474 -0.02549 -0.344683 -0.039477 0.155262 0.251878 -0.359339 0.473932 -0.499891 -0.242901 0.021594 0.279005 -0.347223 0.435469 -0.10073 0.121417 -0.329961 -0.171425 -0.071466 0.136153 0.042203 0.044773 -0.18219 -0.159763 0.400417 0.317396 -0.254089 -0.510511 0.278194 0.562493 -0.423874 0.070675 0.203907 0.037533 -0.058555 0.189146 -0.204527 -0.217718 0.039499 -0.420438 0.071371 -0.098018 0.320904 0.05354 0.231277 -0.340768 0.166458 0.086563 -0.180927 -0.077211 -0.195005 0.438864 -0.230723 0.280144 -0.37655 0.036356 0.498236 -0.013202
pubis -0.007868 0.149191 0.464433 -0.353537 -0.016767 0.032595 -0.308485 -0.491057 -0.367594 -0.05846 0.085025 0.19418 0.247747 -0.390467 0.30267 -0.522995 -0.072115 -0.695156 0.214062 -0.412226 0.02478 -0.410858 0.274062 0.029916 -0.784186 -0.198746 0.267486 -0.278377 0.644352 -0.089835 -0.123806 0.076557 -0.031231 0.104727 0.075195 0.516712 0.380389 -0.228338 0.443232 0.036884 -0.212726 0.017237 0.080151 0.492933 -0.099954 -0.108162 0.16493 -0.00835 -0.073415 -0.173085 0.013753 0.299223 -0.592381 -0.107902 0.065251 -0.041836 -0.105705 -0.218712 -0.172673 0.108017 -0.1143 0.131581 0.46459 -0.56443 0.228873 0.028532 0.351185 -0.051527 -0.047624 0.014754 0.08537 -0.586515 -0.0127 0.474368 0.672697 -0.382278 -0.413516 0.355767 0.211568 0.308239 0.333118 0.144077 0.11588 -0.162116 -0.346838 0.088905 -0.311082 0.238689 -0.178409 0.33029 -0.240469 -0.32445 0.164508 -0.283668 0.077122 -0.14214 -0.391498 -0.440324 -0.167823 0.031605 -0.053375 -0.241413 -0.144998 0.641258 0.363933 -0.189281 -0.031926 -0.215115 -0.051986 -0.21794 0.442039 -0.049685 -0.176687 -0.709201 -0.054831 -0.013037 -0.055057 -0.275987 -0.0377 -0.240357 0.710121 0.004096 0.384886 -0.125443 -0.595194 -0.107866 -0.423936 -0.230359 0.20024 0.12684 0.303981 0.092039 0.071375 0.197582 0.070183 0.437578 0.324161 -0.717955 -0.017327 0.179895 -0.083649 0.245293 -0.071513 0.234144 -0.107085 -0.077941 0.005054 -0.145275 -0.200352 0.404568 -0.067803 0.13051 0.055583 0.399359 -0.175163 0.702016 0.037442 -0.299986 0.017674 -0.551064 -0.125852 0.196228 0.071888 0.215216 0.177184 -0.066264 0.443972 0.164553 -0.469018 -0.069495 0.556257 0.589666 -0.123077 -0.096323 0.211905 0.198746 -0.299151 0.473034 -0.339182 -0.109834 -0.014533 -0.125262 -0.257134 0.363084 -0.355426 0.302849 0.438193 0.118239 0.032056 0.209582 -0.040909 -0.345194 -0.319994 0.270461 -0.4396 0.133075 -0.239969 0.004123 0.198839 0.0002
semicircular -0.145109 -0.248995 0.07146 -0.144442 0.253827 0.380896 -0.28242 -0.253558 -0.620525 -0.347649 -0.185259 -0.202218 -0.152433 0.331148 0.028145 -0.114898 0.007363 -0.539984 0.65735 -0.205374 0.069793 0.043942 0.301075 0.456595 -0.316599 0.06169 0.272643 0.118483 0.369796 -0.111487 -0.307978 0.252381 -0.04006 -0.209177 0.21604 -0.136776 -0.272298 -0.133049 0.294412 -0.499908 0.448319 -0.25268 -0.559502 -0.016928 -0.131502 0.160143 0.007151 -0.059788 -0.051321 -0.093962 -0.107012 0.36437 0.256667 0.20548 -0.573031 -0.231581 0.204192 0.147511 0.139178 0.005864 0.430906 -0.233992 0.256208 -0.128979 -0.14161 -0.178146 0.184557 0.194765 -0.489636 -0.007811 0.107099 0.060031 -0.294054 0.095027 0.231498 -0.299312 0.532324 -0.180339 0.180217 0.265094 0.573593 0.222666 -0.052232 0.381153 -0.060722 -0.181632 -0.174997 -0.035375 -0.120933 -0.092643 0.028682 -0.250165 -0.416925 -0.287862 -0.176738 -0.191179 -0.024389 -0.065272 -0.177267 0.337736 -0.055762 -0.050664 -0.101913 0.423551 0.412331 0.094868 -0.149492 0.348214 -0.21499 -0.545819 0.062101 -0.154104 -0.041159 -0.354813 -0.134673 0.384113 -0.122947 -0.018798 0.361023 -0.100078 0.471236 -0.234765 0.278648 -0.378799 0.042089 0.684142 -0.154168 0.547089 0.681429 -0.13371 0.024551 -0.18155 0.019396 -0.075904 -0.147342 0.084164 0.052295 0.381735 -0.285089 -0.061985 -0.023506 0.345875 -0.186563 0.476217 0.375203 -0.302034 0.321573 -0.220954 -0.181585 0.75211 0.259854 0.085931 0.005822 0.268906 0.476645 0.360087 -0.116043 -0.22548 -0.02761 -0.756065 -0.20366 0.245758 0.362355 0.056584 -0.240882 -0.290767 0.493325 -0.105189 -0.330165 0.235887 0.158192 0.356741 -0.223121 -0.272676 -0.155347 0.062387 0.145237 0.47506 -0.096937 0.287025 0.281789 -0.615216 -0.188689 -0.224956 -0.494275 -0.054827 0.405575 0.257633 -0.339608 0.242701 0.055703 -0.102633 -0.476724 -0.101774 0.18639 -0.110913 -0.314963 0.308108 0.675368 0.313054
decidua 0.045984 -0.068593 0.290336 0.056661 0.062215 -0.435612 0.04379 -0.115324 0.046362 0.16164 -0.06319 -0.475221 0.415787 0.036322 0.068054 0.130487 0.262407 -0.386943 -0.413745 0.112091 -0.158514 0.26701 0.151502 -0.080864 -0.427701 -0.277942 0.213953 -0.275741 -0.279511 0.253586 -0.000982 0.071389 0.109831 -0.152194 0.133338 -0.470031 0.064359 -0.098936 -0.248728 -0.077644 0.236357 -0.19834 0.292504 -0.287392 0.156171 0.16291 0.331935 0.028869 -0.143561 -0.00553 -0.237871 -0.158046 0.043003 0.188372 0.14543 -0.418098 -0.246665 0.174985 -0.550103 -0.000154 -0.21719 0.071294 0.135742 -0.473396 0.532613 -0.024421 0.519233 -0.350638 0.303106 0.093272 -0.467387 -0.34225 0.615454 0.203444 0.065979 0.124975 -0.098691 -0.358441 0.411232 0.094765 0.077369 0.544805 -0.017831 0.192941 -0.4187 0.421648 -0.222021 -0.24654 -0.258041 -0.190484 0.226521 -0.381354 -0.560796 -0.041785 0.317866 0.038385 0.124249 0.062857 0.024713 0.633328 0.00702 0.271405 -0.32097 -0.056495 -0.083164 0.645121 0.174283 0.025613 0.457057 -0.260728 0.20783 -0.246106 -0.019552 0.232032 -0.289262 -0.105917 0.072623 0.304238 0.047612 -0.103379 0.320835 0.03336 0.15531 0.102996 0.025008 -0.090963 -0.445467 0.30268 0.274906 0.391541 -0.109461 -0.110419 0.090619 -0.148744 0.161219 0.059617 -0.337356 -0.528877 0.394413 -0.273743 -0.206772 -0.084868 -0.226022 -0.055701 0.367253 -0.25515 -0.171873 0.119565 0.106755 0.418302 0.401793 -0.225176 0.201368 0.157065 0.406284 -0.462979 -0.352215 -0.183615 0.139412 0.367867 -0.155575 -0.229911 0.250171 -0.049846 -0.724037 -0.080303 0.294894 -0.146449 -0.437321 -0.374088 -0.281222 -0.040601 -0.044745 0.053563 0.202482 -0.053306 -0.061173 -0.054464 0.197726 -0.066011 -0.072675 0.374293 -0.135678 -0.323396 0.170334 -0.223691 -0.244298 0.280928 -0.226846 0.215965 0.04577 0.018587 0.091062 0.444723 0.028157 -0.079421 -0.216479 -0.061711 0.284625 -0.007073
fingers -0.132879 0.175404 -0.00186 -0.298012 0.457228 0.007872 -0.210824 0.164872 0.068742 -0.009101 -0.250831 -0.138633 0.289732 0.052509 -0.231602 -0.445542 -0.253391 -0.017673 -0.19477 -0.147408 -0.159439 -0.293976 0.1282 0.200209 -0.433231 0.088124 -0.002294 -0.291031 0.393991 0.075881 -0.189846 -0.074565 -0.167373 0.175842 0.142007 0.088478 0.168193 0.426469 0.297245 -0.607307 -0.029579 0.372952 -0.040356 0.115082 -0.449007 -0.040574 -0.08377 -0.404901 0.342487 0.111778 -0.262016 0.062304 -0.023222 -0.084517 -0.275568 -0.26385 -0.076168 -0.425657 0.020977 0.018727 0.312533 -0.192679 0.433107 0.249544 0.072038 0.359955 0.323654 -0.287684 -0.259342 0.005689 -0.152135 -0.050347 0.26784 0.192074 0.24148 0.117044 -0.154143 0.199588 0.013138 0.158026 0.214087 -0.205944 -0.317015 -0.162826 0.178036 0.074465 0.014085 0.383184 0.0381 -0.171617 0.381618 -0.161137 -0.192215 -0.059267 -0.179304 0.030989 0.078536 -0.046924 0.071882 0.291203 -0.082383 0.110486 -0.153316 -0.015236 -0.156864 -0.196791 0.034916 0.090124 -0.041636 -0.111068 -0.419583 -0.147509 0.000695 0.044978 -0.564651 -0.216134 -0.298838 -0.293842 -0.041417 0.127838 0.148147 0.08698 -0.011191 -0.406464 -0.134693 0.054966 0.206592 0.169373 0.184315 0.276784 -0.085637 0.034335 -0.331778 -0.023636 -0.166476 0.102995 -0.011949 -0.370333 -0.237599 -0.078484 -0.387347 0.07368 0.142938 0.187566 -0.399231 0.128646 0.114208 0.172122 -0.141853 0.026565 -0.075742 -0.010106 -0.065963 -0.033282 -0.404883 0.263848 -0.013303 -0.12268 -0.350772 -0.199167 -0.149274 -0.138669 0.122437 0.26976 -0.315845 -0.047411 0.220724 0.414717 0.143662 0.040507 0.287075 0.176602 -0.469992 0.078665 0.070464 -0.128621 0.069159 0.432182 -0.053537 0.154376 -0.048003 -0.175477 -0.138463 0.096762 -0.031462 -0.202621 0.295888 -0.084048 -0.095709 -0.064754 -0.163249 0.11231 0.004751 -0.123236 -0.090267 0.154733 -0.343912 0.067077 0.058221 -0.141883
hydatid -0.028797 0.718579 0.807802 -0.340343 0.285623 0.034336 -0.012756 -0.278385 0.305107 -0.060053 0.122527 -0.027282 -0.195877 -0.574512 -0.379276 0.009262 -0.686076 0.121632 0.132638 0.563468 -0.307854 0.203221 0.017278 0.258873 -0.223473 0.125504 -0.635847 -0.494223 -0.206032 -0.113612 -0.422155 0.098025 0.344267 -0.086188 0.122845 0.450395 0.083321 -0.235819 0.097707 0.211114 -0.876679 -0.600796 0.339406 0.108987 0.208874 0.289841 0.204576 -0.062532 0.389564 0.546544 -0.378154 0.345538 0.330267 -0.032562 -0.331504 0.156606 -0.313844 0.738288 0.205676 -0.29075 0.087558 0.011599 0.168402 -1.1202 -0.05348 0.063948 0.94763 -0.381848 0.007764 0.19036 -0.238562 0.299836 0.331166 -0.176432 -0.149711 -0.264065 -0.088196 0.465192 -0.004422 -0.011873 -0.317152 -0.244654 -0.056655 0.290027 -0.181522 -0.033973 -0.060749 0.072245 0.241071 0.063414 0.019436 0.385398 0.112694 -0.384307 -0.007372 -0.20969 -0.810263 -0.052074 -0.108478 0.054755 -0.173123 0.074225 -0.62548 -0.313482 -0.301513 -0.121234 0.34065 -0.151303 0.087874 -0.178704 -0.176831 0.21246 -0.006212 0.01009 0.036038 -0.146881 -0.206375 0.235402 0.020755 -0.124938 0.577557 0.011233 0.52483 -0.14442 -0.408841 -0.105075 0.19894 0.380076 -0.133753 -0.340729 0.081506 0.056544 0.329651 0.136738 -0.085139 0.181041 0.315579 -0.075375 -0.144787 -0.475435 0.070219 0.413238 -0.325932 0.259934 0.305292 -0.23805 0.025905 -0.196939 -0.099474 0.172977 -0.109702 0.139336 0.109388 0.122532 -0.028197 0.056106 0.050917 -0.238884 0.114549 -0.244662 -0.308393 -0.457831 -0.352942 -0.326094 -0.0503 0.286852 0.446591 0.097024 0.074213 -0.045081 0.571519 0.189012 -0.022675 -0.059678 0.058259 -0.054052 -0.241483 0.316522 -0.410223 0.064855 0.009511 -0.054685 0.093318 -0.345679 -0.303192 -0.088537 0.083896 0.451564 0.14204 0.17253 -0.166113 -0.313691 0.018139 -0.201116 -0.137711 -0.363823 -0.074359 -0.435602 0.404414 0.245358
bipolar -0.451889 -0.006575 -0.059572 -0.277634 -0.170145 -0.183462 -0.214852 -0.166365 0.023517 0.219925 -0.076752 0.304385 0.179956 -0.058347 -0.091815 0.595418 0.131588 -0.254505 0.623127 0.007655 -0.333167 0.059904 0.114146 0.391813 -0.27375 -0.206921 0.469046 -0.126659 -0.046832 -0.028594 0.365039 0.244152 -0.156572 -0.250505 -0.21629 -0.076765 -0.302017 0.084321 -0.489047 -0.008869 0.004882 -0.003801 -0.411891 -0.20478 -0.364564 -0.325784 0.097391 0.139047 0.140953 -0.179196 -0.073017 0.06573 0.154411 0.007305 0.303087 0.010981 -0.065973 0.008673 0.26069 0.034024 0.150867 -0.03548 -0.191048 0.083568 0.082142 -0.343416 0.060801 -0.013598 -0.114733 0.165381 -0.276787 0.345777 0.300564 0.307188 0.196577 -0.342267 0.308732 -0.01436 0.477355 -0.031129 -0.101538 -0.172779 -0.342031 0.052666 0.343558 -0.108313 0.06287 0.015918 -0.216585 0.428211 -0.022515 0.073911 -0.235543 0.231663 -0.36665 -0.445308 -0.138113 0.181093 -0.057211 -0.033778 -0.23222 0.38713 0.271958 -0.10537 0.093901 0.28714 -0.030092 -0.009273 -0.081919 0.043492 -0.028817 0.423086 -0.721598 -0.142785 -0.176605 -0.031775 -0.040408 -0.096986 0.220378 -0.602883 0.225227 -0.145787 -0.310904 -0.13649 0.601292 -0.011941 -0.165912 -0.057335 0.577313 -0.196989 0.099951 -0.077625 0.336688 -0.131246 -0.194206 -0.379276 0.165708 -0.501479 -0.167654 0.027096 0.457776 0.213268 0.043503 0.252846 0.068817 0.145698 0.037362 0.418151 0.14584 0.115121 0.221845 0.171868 0.066926 -0.317732 0.241037 0.143667 -0.502334 -0.038481 0.191415 -0.330561 -0.144065 0.389737 -0.209735 0.16635 0.368754 0.232552 0.276833 0.342972 -0.174136 -0.003358 -0.366136 0.23487 0.385758 0.099669 -0.099065 0.227079 0.345828 0.03742 -0.104655 0.190947 -0.048969 0.044716 -0.139205 0.13448 -0.433481 -0.200659 -0.384084 -0.059168 0.023512 -0.11613 0.174481 0.239662 0.039612 -0.155969 0.046868 0.286313 0.139895 0.176419 0.32605 0.20626
frontalis -0.187761 0.256226 0.056917 -0.081704 0.413435 0.269565 -0.510915 0.028652 0.092783 -0.22642 0.277641 0.156691 -0.193597 -0.046335 0.284558 0.067212 -0.111116 -0.740527 0.269534 -0.31026 -0.422439 -0.283458 0.463637 -0.067982 -0.419983 -0.02389 0.339971 0.015723 0.194912 -0.277164 -0.175626 0.33115 -0.485979 0.04581 -0.002062 -0.358879 0.614392 0.083603 0.125798 0.111835 -0.34488 -0.220301 -0.291386 0.2864 0.069836 0.177471 -0.090866 -0.343918 0.052684 -0.150841 -0.075195 0.160191 -0.063133 -0.087837 0.361113 0.195503 -0.112192 -0.101898 -0.065007 -0.631762 -0.212869 -0.356607 0.653669 0.027149 -0.151972 0.129038 0.112103 0.274254 -0.196978 0.081159 0.220109 -0.081091 -0.020283 0.11025 0.355945 -0.315616 -0.672494 0.051833 0.293076 0.393162 0.106034 0.19649 -0.44483 0.080551 0.263088 -0.082436 0.11865 -0.033322 -0.400195 -0.06059 0.203207 0.052502 -0.067993 -0.100346 0.241494 0.155915 -0.395373 -0.086216 -0.133809 0.230351 -0.006478 0.183019 -0.132024 0.249395 0.224137 0.059206 0.032817 -0.088129 0.215257 0.478338 0.13789 0.041369 -0.002141 -0.039049 -0.220839 -0.198657 -0.00296 0.268287 0.061155 -0.073097 0.378207 -0.049633 0.341802 -0.445231 -0.182136 -0.039433 -0.079928 -0.323432 0.315585 -0.219142 0.294882 -0.225483 0.575487 -0.270326 0.101639 -0.00638 -0.198698 -0.114075 -0.415164 -0.384984 0.068645 -0.07253 0.231795 -0.053352 0.318764 -0.023908 0.297296 -0.053322 -0.384138 0.177582 -0.093846 -0.307734 0.038616 0.087624 -0.269305 0.018025 -0.361396 -0.389617 -0.048368 -0.345363 0.220766 0.026625 0.027076 0.066291 0.582035 -0.218835 0.161046 -0.01059 -0.227227 -0.285278 -0.028388 0.315531 0.441187 0.322489 -0.297376 -0.309858 0.181847 0.292459 -0.372329 -0.267767 0.022249 0.00992 -0.062187 0.001074 -0.38996 0.198869 -0.034145 0.17373 -0.166847 -0.072459 -0.313882 -0.455447 -0.414604 0.110243 -0.007928 -0.062298 -0.335105 0.185122 0.58191 -0.209832
